427 32
1 -0.00023956970423942366 -0.0006546055843949965 0.0004036852640500552 -0.00026880479062349905 0.0004848047792004499 0.00011721511468369202 -0.0005780796759518488 -0.0002992191138367477 -0.0001396095538808708 0.0008519800921206467 -0.0014310916352066752 -0.00030162551770644426 0.0003676254980354971 0.00011589240794236108 6.0390419731625314e-05 0.0003290836657796322 -0.0003999561713607838 -6.976095902206158e-05 -0.0015136294877233143 -0.0006967928005674384 0.0004737051643158237 0.000542015931963275 -0.00014005178481640027 -9.744625101276429e-05 0.0008935020045484917 -7.382469809826545e-05 0.0009498247000155391 2.419919834587147e-05 -0.0002708247204456015 0.0007575776691766689 0.00036127889525160135 0.00014861754004461358
2 0.00015936938438539368 -0.0009419009047551217 1.0783812539811405e-05 -0.00020514416564355588 0.0005940180108810382 0.0005191576552976118 -0.00042513061937308913 -0.0002387432450857657 3.417117126823009e-05 5.945951326449742e-06 -0.00012452703078845326 -0.0003661171281524107 -4.6346844478115975e-05 -0.0009199549902339575 9.884234368491725e-05 0.00023533334507675618 -7.44008911259788e-05 0.0010626261253918045 -0.001202306323836826 -0.0009197567339904233 -0.00012472973308454662 0.0006177882796609911 -0.0006187927995818649 -5.2689205617056574e-05 0.0009243963836893641 -0.00020004955312542079 0.000542963963436033 -0.000352725218571986 4.211710219769393e-05 0.00017062611258396673 0.0009059819716443402 0.0004104189301378446
3 0.0002407443042177139 -0.0008031232975728727 0.00022701827581168138 -0.00023735618782516773 0.0007362237227375958 -1.579452333674175e-05 -0.00022735160626774042 -0.000924666655827917 0.00039484474293876453 0.00024300458502710413 -3.5433843147145696e-06 -0.0008172968090004203 -0.00029491781401598787 -0.00031442012145214813 -0.00020071233186305215 -6.671209104511181e-06 -0.0004525570716998209 0.00027181733917983433 -0.0013829589164302872 -0.0004748356135944266 -0.00023185388220898855 -6.960271599531901e-05 -0.00015454339162836205 -0.0005295297196758199 0.0007484383444135932 -2.0986290724794423e-05 0.0005659497715423142 -0.00022652512298299948 0.00040807760420507065 0.00013006391566717593 0.0012489132429216617 0.0007708812903662821
4 -0.00024061649428492354 -0.0006423495159501682 7.41407740013493e-05 -0.0005370000014841687 0.0006175679392354759 0.00010658737112165008 -0.0008082038876433852 -0.0011724805619994264 0.00015512620917186863 -3.243204509911186e-05 -0.0001786310567165379 0.000525296100852412 -0.00022926700104523035 -2.1271864117577545e-05 0.0005928834792392134 -5.6252414210178455e-05 -0.0004267621142857536 4.0543679858176986e-05 -0.0010014902999880611 -0.0007791601950955437 -0.00010071360045612804 -0.00032578641407472053 -0.0005671262226438487 -0.00018800974252265856 0.0002511067946613269 -0.00015786407392033211 -0.0006118689283698365 -0.00039237864245381576 -0.000551708754544043 -0.000237951464764018 0.0005282135838375696 0.0005181553576212801
5 -1.2766977853918204e-05 -0.0006859029161788182 2.9402910601754574e-05 -0.0005592281548478708 0.0003192038558171969 -0.00010288835504785682 -0.0010378301005261766 -0.00117099997809092 0.00016490290409351872 -2.8577671683414893e-05 -6.220387832814878e-05 0.0006263300820490576 -0.0002905922444979208 -0.00018333983077081057 0.0005244368890221841 6.847574598581453e-05 -2.8257259649215537e-05 0.00039520387785937027 -0.0008755582606929097 -0.0007065776697045206 -0.00022841263657452163 -0.0002887475802178847 -0.00032269417632722127 0.00021167957867556183 0.0002798543673899314 -0.0002108980553971069 -0.0006281650423738276 -0.0006516407751608587 -0.0004423835174465531 -0.00015350971986301322 0.0006304320328674241 0.0004343155548129077
6 0.0002487614270316515 -0.00098614213801817 -0.0003325329686270975 -0.0008886954468659593 -6.791896925888114e-06 2.3878169149103653e-05 -0.0007094416223988787 -0.00014039593088224311 0.0005538324751007148 0.0002979746099447254 -1.1142127256932654e-05 0.000185507598529844 3.963958858876509e-05 -0.00039943658472287003 0.0005255685210627442 0.00011119292003751453 0.0002474365779460936 0.00011534010106889734 -0.0006136802264987397 -0.0010944162244653816 -7.108028881786023e-08 0.0005757106566473104 -0.0001447766660349231 -0.0001570914053833254 0.00038024871568739186 0.00038939593034071924 0.0004971573492780246 -0.00026683754976179926 0.00013182739544598395 -4.46548222217057e-05 0.0010270710690239524 0.00034360915088853537
7 0.0003997459592348015 -0.000498254055600154 -0.0002256540280713297 -0.00013275135373791075 0.0007675567410596822 0.00020619998701747405 -0.00013720000004812736 -0.0006977567422935052 0.0006194540481767428 0.0008507946218348995 9.653512948913172e-05 -0.00020225405546748457 0.0002749999922171638 0.0002662053597206879 0.0009005405418212978 0.0005434757084200297 9.563785734408648e-05 0.0005349459468954985 -0.00097422704023523 -7.317294504310986e-05 0.00014735675539594847 -0.0002723189147709982 -0.0004575729789762959 9.357294827193097e-05 0.0005383837889452037 -0.0008332864971217114 0.00013056214639446635 -0.0006533999989335064 -0.00026999461131069707 0.00021656756078398856 0.0003704107910625926 0.0005918648609155285
8 -0.00023915383252852524 -0.0008520076806934622 0.00043968462145690306 -0.0013234692311436028 0.0009337230736911386 -0.0008516230680330549 -0.00037508461649010243 -0.0005472154157849637 -0.0005297461614155998 1.877695190509817e-05 0.0003693461392126315 -0.000730230785960045 0.00042620770431872537 0.00017403843727291902 0.0010578769236207547 -3.189998771211741e-05 -0.000638107699342072 0.0005533153579912883 -0.00100625385172092 0.0006236307898339313 -0.0005901846374259689 0.0005330615544852873 1.3815399226866878e-05 -0.0007692154253163608 0.0011784538510255516 -0.0011112384297890597 -0.00026156152553784734 -8.636925489414492e-05 0.000829153828537808 4.506155170159987e-05 -0.00032233846905000975 0.00018557694263738366
9 -0.0012312580512771484 0.0014892365589896867 0.0012657096586315341 -0.0006464408688379893 0.001081494608135022 0.00028805375432154986 -0.0013527741773217987 -0.001463537627044985 -7.726882352970631e-05 0.0005705161244306157 -0.0013707634468402674 0.0021143225925287323 -0.00018693549372005448 -0.0005565053903527798 6.208601498460617e-05 0.0006836344435859862 -0.0006913333187400494 0.0014906666242837986 -0.0004723978906235237 -0.0019700859944956997 0.0014179354590743716 -0.0003812473169678161 0.0007483871095539671 0.0010468709358544294 0.0004967311854093706 0.0009315053516778574 0.00047454840355923256 -0.000424827964335598 0.0007296881775341375 -0.00015217204985361527 -0.00042783870719753766 0.0010124301094742072
10 0.002254988127831547 0.00045386905791626003 0.0013642619316150168 0.0008991666737918942 0.00021082140266939642 0.00228942855063083 -0.0008070714177717621 -0.0003366547382538123 0.0010569642485972423 0.0007317142853502272 0.0006675952155048782 0.0003936309452304461 -0.0006703809776809067 0.0006402618505706501 0.0012544523844900098 -4.877380126258469e-05 0.00035316668418956744 -0.0009378571606551608 0.0019996547336978395 -0.0010826428255573514 -0.0005924762124431297 0.00011286904122070631 -0.0008867261796175237 0.0015935237960158183 0.0007013928240797083 9.553571042141855e-05 0.0007101666617147982 -0.0007395119033563311 0.00025861904751287685 0.00014939285773878162 0.0007679999677011871 0.0010560476330283564
11 0.0018550119268530537 0.00019483335303708112 0.001217119072472477 0.0010441309515001542 0.000200285699628737 0.002443095219773351 -0.000983273796096217 -0.00038351187479942643 0.0005988332988549484 8.901189929539604e-05 0.000741357118905788 6.194047126059776e-05 -0.0005530119371888716 0.00022426186218841134 0.0007410952464505542 -1.4249989406033863e-05 -0.00016309522401397337 -0.0004760833579071221 0.0019222737769485406 -0.001146940460222097 -0.0003472381069427467 -0.0001287381005351476 -0.0006211428519149887 0.00208145236302655 0.0008710714007195618 0.0005456666713143932 0.0008536666744346023 -0.0005364285682281618 -0.00011230951696190805 0.0008262380996755036 0.0010684523574257452 0.0012533095264405433
12 -0.0008348888651748838 0.0007446049118395118 -0.0005974321194779254 0.00015169135323599164 -0.00034402472209438674 0.0014384814662830817 0.0006645802253011807 -0.0008556296302287345 0.00018345679577409842 -0.0017930370333802492 -0.00021611111357888597 -0.00026364194482196996 -0.0010790000004941068 0.00029112346480057266 0.00019066666276625324 2.880247632640897e-05 0.0010828641943926751 5.338268399807728e-05 9.962976755672077e-06 -0.00023745677107298333 -0.0003657654498381839 -1.6814782241083406e-05 0.0005500617546293838 -0.00045361732033743916 -1.7654289416738866e-05 0.0015093333242004047 0.0024439382933103193 -0.0010717283843809532 -0.0004708642150091444 -1.5888915612900566e-05 0.001405432103862871 0.0017962469331299265
13 0.0016273704029039055 -0.0004424320718555217 0.0012906913745812038 0.0008077654496401571 -0.0008746420024652724 0.0007910123278162684 -0.002296925907833128 -0.0006486295771459099 0.0004695555163144255 -0.000984666656334827 0.0004120863904748227 2.471602649031276e-05 -0.0007958642198462729 -0.0003864074407582298 0.0012739753195395072 -0.0006141357812283123 -0.0006142222106221051 0.000349308623377892 0.0003428641752696332 -0.0005096419808529548 -0.00023332100587409782 -0.0009174691610193501 -0.0010731975371190518 0.0017186419335538867 0.00035299998521229917 -0.00044314815053956316 -0.0011836666544021918 -0.0013258395401076815 8.960494507150149e-05 0.00021080245758998956 -3.102471663747385e-05 0.0011895308686049517
14 -0.0010670138928819345 0.0007751388859307755 -0.0008681527634608857 0.0006990276914520008 0.000538749982499414 -0.0018211666974821128 -0.0005559722330114406 -0.00010523608539693264 0.0021749166593912784 0.0019471388789042976 -7.765282094219906e-05 -0.0005941666747983416 -0.00044418055868946895 -0.0015375833721312422 -0.0015490416373924948 0.0008055972291205964 0.0009818611150775622 0.0005827777689167609 -0.0005757222344173999 -0.0017110694229308541 0.0008650694421198245 0.0007668611071696634 0.0007265833337442018 0.0003736527489005918 0.00012779169224409593 0.00015422225970319737 0.0015440138877238496 -0.0009154305718968519 0.00012631943193102616 0.0007521110837842571 0.0027988472447759705 0.002505222257847587
15 -0.0010590422205777814 -0.00047035213161430414 0.0016107464807262172 -0.0002792113369189754 0.0012871408562461228 0.0004897746384557022 0.0010812253310856685 -0.0006054788889383084 0.0006309577549191218 0.0005605915412929853 0.0006681549179197197 -0.000778929636408706 -0.00033852111603113706 0.0005879013908116563 0.0005846901445872557 -0.0013294929882813192 7.732394749862732e-05 -0.001333098626584077 -0.0017067182787184104 -0.0006958591404557884 0.0008263098564602329 0.0002649014198358997 -0.0009314084835891599 -0.000507915497660755 0.000305957717552099 -0.00026438030242939597 -0.000287098605658172 0.0005751971462737395 0.0012053239465081198 0.0014462253852734264 -0.00044098591465178326 0.0015841972008659045
16 -0.0011884637693267155 -0.0003205652108696033 0.0017392173571009323 -0.00047226084954699206 -0.0007115072409193828 1.9130394439739376e-05 -0.0008194782846882277 0.00039392752502032596 -0.00033847825687953974 0.0005787101646368999 -0.0013838261126522043 -0.0007951304658596148 0.002230376846824399 0.0006857391285650564 0.0005907971127021153 0.0001002753295166337 -0.001914130433536796 0.00023421739519951677 -0.001936463726873415 -0.0008189420060670523 -0.0011877681506608708 0.0014956231896286372 -4.221737406729464e-05 -9.243481880453739e-05 0.0011613188939720756 6.13188475245556e-05 0.0008174348217637643 0.0004186376779967838 -0.0016249130375386364 -0.0006648550970830779 -0.00017110142589840308 0.0003251449333206899
17 -0.00041303279634076555 -0.0006716885187922687 -0.0014055082276291748 -0.0027135901947956164 -0.00023008194520876774 -7.85901901821728e-05 -0.0003597213412906028 -0.000422229462319443 0.0003436557551035772 0.0018638196861353268 0.0004724426176895189 -0.0022046720992189785 0.0002595573715239641 0.0004887213114864712 -0.0029674262536229703 0.0009120655432510472 -0.00037842618633580747 0.0015036557404110667 -0.00026521310374831597 9.919676622452184e-05 0.0012233934124748483 0.001522459048724382 0.0006785737904032968 -0.0020740328153373948 -0.0012345901846916216 0.001385672152358237 -0.00022437705071051375 -0.00086080329206421 -9.200000991380666e-05 -0.0004996065771756846 -0.000884557443315003 0.00041693445394334737
18 -0.0006849344058313453 -0.00021219670601507848 -0.0016514261917079432 -0.0019798688895878245 -0.0008181475542321587 -0.0002714590255130983 -0.0005055409990626552 -5.272126798475062e-05 0.001040311448109531 0.00031418030815328794 -0.0005339344330780879 -0.00034239343305492436 0.00025578686246098797 0.001488639316597923 -0.0006718852396932293 -2.313117863091289e-05 6.049187266130428e-06 -0.00026214751337423967 0.0023225081519635976 0.0007848196618113911 1.0950784256193238e-05 0.0019219344067692634 3.6409846125323265e-05 -0.00047181967548552716 0.0006307540785857156 -0.0013646393435621696 -0.0004462131366351253 -7.109838722991284e-05 -0.0012324098681317276 -0.0019811967482293437 0.0009147376492409585 0.00020206560639351545
19 -0.000672934406062924 -0.00044032784824624095 -0.0014152950507046686 -0.0018557869215194349 -0.000614032799379946 -0.0005636229555525237 -7.729509235984746e-05 7.311525626048889e-06 0.0009242458722614264 0.00047026228061380996 -0.00042586885707559765 -0.0003463934329777315 0.0003318360452750148 0.0015806884993417342 -0.000371721305991294 -9.118035420408992e-05 0.00027421312540250477 -0.00023413111653024346 0.002302491762599007 0.0011650327746718205 -4.1082009508992075e-05 0.0018859016279628897 0.000208508200393837 -0.0006679344304921258 0.0007708360484923373 -0.0014646885185178034 -8.20000234659242e-05 -0.0003312459338616702 -0.00141252462153865 -0.002145295114102931 0.000958770435526738 -0.00012213111016326814
20 -0.0007587212880264173 -0.00018691801585087202 -0.001587147513747055 -0.0017604918417627694 -0.0005997705044793576 -0.0006744426241684628 -0.0005012950994449832 -0.00022957372723302812 0.001102606523493362 0.00031542621927954195 -0.0005256721361532624 -8.299999625124343e-05 0.0002260327703685912 0.0017020163721725588 -0.0005955901569457817 -3.18852749454682e-05 -5.173769905460907e-05 -0.0005410655477865729 0.0025308688064334824 0.0008280983592620212 -1.0803307990589348e-05 0.0014709180142715207 0.00044090163771857006 -0.0005686393481885373 0.0007090491622487908 -0.0016675573775113454 -0.0002938688695230369 -0.0005000819930173152 -0.0009900328226589796 -0.001815852486497086 0.0008789671598800046 -0.00023895077866341796
21 -0.000746721288257996 -0.00041504916022903833 -0.0013510163621280387 -0.0016364098725016 -0.0003956557553524884 -0.0004543114836913625 -7.304919274217549e-05 -0.00016954094030179626 0.0009865409552790492 0.0004715245738568273 -0.000417606561820664 -8.699999617405053e-05 0.0003020655541283796 0.0017940655472825785 -0.0008077212975772678 -9.993445433554103e-05 0.0002164262314479737 -0.0005130491509425767 0.0025108524170688916 0.0012083114721224506 0.00044945898021143846 0.0014349016175819102 0.00010070492147055805 -0.0007647540993782402 0.0008491311312011886 -0.0017676229574851172 -0.00044196723701745333 -0.00024793445577341147 -0.0011701311805900033 -0.001979950852370673 0.000922999946165784 -5.083602731932932e-05
22 -0.0008005081746559285 -0.0002577212954881853 -0.0012346885006514104 -0.0018933115099541477 -0.0003493770694104405 -0.0006611803311570243 -0.00020888525826000555 -0.00024632782625586946 0.0011969016058934418 0.0007329180220725992 -0.00022924590147802698 -0.00017580326783020415 0.00022827867002485962 0.0018193278400624384 -0.000743426222232033 -0.0003928524846608033 -7.749179122419876e-05 -0.0004037376752645197 0.00251511471407091 0.0010314590081030534 -5.574161224983266e-07 0.0014361475287081643 0.00010895082101103713 -0.0005053442651902127 0.0008193606417244453 -0.0015542459019104813 -0.00036567214663621407 -0.0002567049494723133 -0.001227918065002295 -0.001746557399797655 0.001131360600635669 -7.557339410938811e-06
23 -9.561016942548044e-05 0.0015987457933942235 -0.0010430000290043762 7.18641215718304e-06 0.0007410677632324839 0.001188949146234012 -0.0004630338603342583 -0.0007203558877443942 0.00017661017249091687 0.0013828983096804439 -0.0005601525597246679 0.00022745765849229707 0.0018772203334650594 0.0019073389742870705 -0.0030309999955056423 0.00012781351435509257 -0.00015737285582995895 0.0007678643806237664 -0.00017052540216216092 0.0003629152271383584 -0.0004067796862573694 -0.000984576242675973 0.00129289828241858 -0.001525338987772495 0.0006901186277253269 0.0012762542358714045 0.0013839999715177544 -0.0007120169563168636 -8.591526275884431e-05 -0.0006675762941979929 0.0005249491235699063 0.002728389889806888
24 -0.00031930507679659304 -0.00040747456604533957 -0.0008301694687037587 -0.002083779688800243 -0.00034745764633506475 -0.00027508475811327255 4.3593214409696175e-05 -0.00044854233305683256 0.0008053219919975933 0.00012989829257880416 -0.0008852711990446058 0.0004123728882651618 -8.037287847462537e-05 0.0010639999645872642 -1.677965263883441e-05 -0.0006347966303464846 0.0005293390057562709 3.0508557047450253e-06 0.001879559281297912 0.0014995592957070508 0.00020950844943507622 0.0011761694884749516 -0.0008653050621032273 -0.0009390000037856842 0.0001105932100533934 -0.001913338980264567 -0.00081145765197708 -0.00047744072675783884 -0.001397915285621312 -0.0015936779946522143 -0.00018493224965591946 0.00016157629764520452
25 -8.25357180604312e-05 0.001469285698216741 -0.0021279107122609275 -0.0020970357363694347 0.0017896250056505128 0.0014373749723485421 0.0006750178504911933 -0.0011196963814654737 0.0013206607170884257 0.0006861607209884824 -0.00015353572910368842 -0.0008964999659448429 0.0006730178470856377 0.001098928551073186 -0.0018933571575741684 0.0004557142434740464 0.0008928571468394304 9.489282820140943e-05 -0.00014971427611141865 0.0009143392682225178 0.0019106071031274041 0.00011532147618709132 0.0011012142840627348 -0.0009856250170352204 -0.0002498750275533114 0.0002535178690387901 0.0006737142733917219 -1.2642833683327939e-05 -7.791073117654637e-05 -0.0015135357034523622 0.0007301606549715091 0.0018105178813649608
26 0.001165545469716149 0.00031159994898850775 0.00030047274578299204 0.0017608546016907151 0.0015702726742760703 -0.0006535091182410146 -0.0006145818188088015 0.00026727272488642485 -0.00226465457509965 -0.0003962181949067268 0.000742636335648554 0.0001337272451068698 -0.0001920363802293485 -0.00023939999201419678 0.0022323636275938374 -0.0017382545460184868 -0.001524563577682288 5.679998840522868e-05 -0.0018359636364039035 -0.0023390909820922056 -0.0020808181667234748 0.0011579817690124566 0.0008867454710442953 -0.0005057454720372335 -0.001798745423597707 -0.0009572908930501647 -0.0006880181789959103 0.00023730910298499193 -0.0018944545670158484 -0.00022560001393272117 0.0009593454614249905 0.0013371636498380791
27 0.0011020181958553042 0.000346836318468294 0.0003057454751053063 0.001909272779117931 0.0014135272284461692 -0.0005516909400532974 -0.0007380363645180213 2.063636705067686e-05 -0.002301563663422712 -0.0008670181984515777 0.0007035090613168325 -1.0818209425038235e-05 -0.0004642000104385343 -0.00021747272165322846 0.002490654530728617 -0.001851727277971804 -0.0012507453962991182 0.000500418174223424 -0.0016353818275754086 -0.002492527341448956 -0.00218430908492089 0.0013840908544476736 0.001242690922398734 -0.0002019636436175047 -0.0014982726943509822 -0.0004515272620747882 -0.0005318181876315396 0.0003591091118075631 -0.0021133636653592643 -0.0006475636460395021 0.000560672725259792 0.0012059272796084936
28 0.001170545469689056 0.0005718363172491081 0.000540727300341876 0.0015283636918122117 0.001513127229091796 -0.00034887275902623186 -0.0006495454631724649 0.0001502000036204911 -0.0022419091209237444 -0.000473345470725855 0.00057450906540246 -0.0002940727485110983 -0.000515527280301533 -0.0005562181775034829 0.0020731090759826738 -0.0017665636376477778 -0.0014840544831134718 0.00021049089515475894 -0.0018442909132731571 -0.0023940364401575857 -0.002102454534244978 0.0013560726751827381 0.0011714000250239306 -0.0004452727414900437 -0.0017404726886359806 -0.0005727636175420644 -0.0005365454624883238 0.0005552545613185926 -0.0021824363809586924 -0.000648945457810028 0.0005515272730421698 0.0014864181951535018
29 0.001312854552022393 0.0006020726867559874 0.00028576365717030555 0.0020047091455622154 0.0015888545069504868 -0.00018990911872110287 -0.0010776181819065558 -6.149090027478947e-05 -0.002161727301790961 -0.00039870909333165563 0.000612509058423298 -0.00027049093279691243 -0.0003598909253593196 -0.00021081817632710392 0.002080054541081402 -0.0017207818211648952 -0.0011819272127468138 4.541817668888887e-05 -0.0017974000069609082 -0.002539127344921739 -0.002150999994377013 0.0010356363099576398 0.0007610727435597007 -0.0004261272850933231 -0.0015004908761263572 -0.0006934545301853425 -0.0007648727275822735 0.0005255636505105279 -0.002151090941730548 -0.00021476365244862708 0.0005762181923438964 0.0011948363791981882
30 -0.0031276000221259893 0.001363080024602823 0.0006268999865278602 0.00026757997926324606 0.0006463199740392156 0.0018957399856299162 -0.0001079199928790331 0.0002929999473417411 -0.0006860399874858558 -0.001647619982250035 0.0030062400226597676 -0.0001539600544856512 0.0014887400430052366 -0.0022941600694321098 -0.0006363399740075692 -0.000194580057868734 -0.0001536400045733899 0.0022410999587737022 -7.842000806704163e-05 0.0001128200179664418 -0.0007498999673407525 0.00018090005265548827 -0.0021754800125199838 0.0010220599724561907 0.0017508199950680137 -0.0005645399724016897 -0.00034559995881863867 0.0005994599897530861 -0.0002883400162681937 -0.0011476400014362297 0.00043091993095004 0.0015989799960516393
31 -0.002026085145499042 0.0008617447103383614 0.00030734038545175436 0.00030444677612011104 0.0006184893703748264 0.0011618723294033887 0.00029325534582157875 0.0002120850844453634 0.0005405106348916888 -0.0017463191683457402 0.0013124042886007142 0.0013527871815700138 0.002882574479333422 -0.003177255382166898 0.00011272340804893286 0.0010148084405413333 -0.0006769361535453812 0.0007232765399632936 0.0012550851270714974 0.00031008513859829846 0.0006560425700104617 0.0010104043337397595 -0.002833957459942928 0.0008488935991215143 0.0008871489219327873 -0.0007887021213119101 0.0007173617602947684 0.0007506170105114777 -0.00016025536442225045 -0.000653510657820276 1.3850969906420784e-05 0.0032879787130638007
32 -0.0006591537243459756 0.0014239743419845279 0.000669794873362825 0.001861820567566424 0.0030784102900025365 0.0010920256295671256 -0.00023948714563933512 -0.0023769230786293075 -0.0011787692365499262 -0.0008842051443375217 0.002744102616233226 -0.0025565896966070747 -0.0001221538509409397 -0.0033649230578866526 0.0015953333767799612 -0.0024463076484747804 0.0017288461639486158 0.002601512851050267 0.00010776918870993913 -0.0004052564700265439 -0.0011472051040842556 0.0009267178926772127 -0.000529282066800545 -0.0014044359010697987 -4.9102514122541135e-05 0.0017645128057502473 -0.00012792308011856407 -0.0009989231009221373 -0.0008986410701674266 -0.0009573076440107961 0.0012993076999032965 0.001850358992576217
33 -0.0005707178281273884 0.0010460256207107494 -6.184617123859099e-05 0.001840692368718103 0.0027787179689114103 0.0008768204924984811 -5.7179462134790345e-05 -0.002135128204454071 -0.000864974363372685 -0.0015376154031120958 0.0024381282557255756 -0.0026528461114652692 0.00020415383653763012 -0.0034549230626091743 0.0010014102967360462 -0.0018789999766084247 0.0014666923215815749 0.0032752564367957604 -0.0005737949276151947 -0.0005766154477336946 -0.0009962051035239338 0.00016064098095879532 -0.0002968718160375899 -0.0013128717997833751 -8.589738550094458e-05 0.002162794851009937 0.0004174871682129705 -0.001245410264789079 -0.0009228974740835838 -0.0007968717487902046 0.0015567436035221012 0.0022674359034937927
34 -0.0003367105298246698 0.002059368428921229 0.00011013154864102896 -0.0017346578893729632 -0.0014109473980313755 0.0013838684167958011 -7.181579904250899e-05 0.0015048683976362411 0.0012203684155362058 -0.0008223420357497066 -0.00015905267163792528 -0.0005511315933912748 -0.003467815824000067 0.0009659999571005372 0.00013123685800421394 0.0007063421178731675 -0.0005956315634600622 0.0003500262698109605 -0.00015202629085826245 0.00031757896910053924 -0.0011880526450879284 -0.001257157863093246 -0.0007259999400910027 0.0011349999840604141 0.0014111052840139326 0.0020812368024244756 0.0007480789645342156 -0.0009787895170647015 0.0011108947648225647 0.001087684172058576 -0.0003816052385924482 0.0017628420946972543
35 -0.0016716215908967864 0.0002905135137356214 -1.986489223781973e-05 0.0008876487054048748 0.0013870270175519526 0.001727378340375081 3.891908351294193e-06 -0.0009825405927463057 -0.001158837817481096 -0.0017309459256687882 -0.0001860270496910891 0.00046705408710073933 -0.0003750269821171674 -0.0007807027196159234 4.45943048878296e-06 0.0023991891333984363 -0.0006296755840397767 0.0014238919542844382 -0.0011536486641931776 -0.0011907026771065855 0.000677054056133194 0.00025118924964477336 -0.0009551891776150238 0.0007959189368537753 -0.0004005946307065519 -0.00027421624572771425 0.0009829729494191957 -0.0006016486594170281 0.0016930810725662505 0.001550459468145729 -0.0015023243440491323 -0.0006192972968337189
36 0.0007006857120099345 0.0035584857221692802 0.0009018285694764927 -0.001006657161217715 -0.0013708857353776694 0.0007791428660441722 -0.00012025715259369462 0.0018898285667611552 -0.0004681714046455454 -0.0014778856666193211 -1.6800033959693142e-05 -0.0006414571939136035 -0.002353142887087805 0.0017957142387915934 -0.00019662854527788503 -0.0005787142835158323 -0.0005105714147378292 0.0002065714032921408 0.00038637147684182437 -0.0008377142558206938 -0.00025588571692683866 -0.0016833999626604573 -0.0001231999534606335 0.0016925142603992883 0.0018012571398035755 0.0022502570982656576 0.0015533428847058011 7.85714081887688e-05 -0.00010131424559014184 5.159993556195072e-05 -0.00045757140199254666 0.0014491714004959378
37 -0.0007052646978991106 0.0016004411736503243 0.0006417646325323457 -0.000721911755082307 -0.002186147098066559 0.0012016176170779064 0.0016858235075607594 0.0006536764275926329 0.0015623235478201155 -0.0008972352691617904 0.001252411725170746 -9.7059177385424e-07 -0.0018393823822193285 0.0016514411442639196 -0.0008592940935426775 -0.0007041764945503982 0.0005052058926701327 0.0009492940700832097 0.00020423530162695576 -0.0008525587969308938 -0.0019451470836750505 -0.00033285291796988426 -0.0021913529173402556 0.0006163528990274405 0.0009488529998206479 0.0009360587539370446 0.0004845882401294897 -0.0021278235683840807 0.00048382355324814427 -0.0008451177221585941 -0.00024147057625026826 0.002087794103906216
38 -0.0016239999685873927 0.0008397878281715693 -0.0015546970257260414 -0.0019227878820498572 -0.001605454564207431 -0.00036363641883133715 -0.0013525757652435761 -0.0022933030377316754 -0.000831363585210497 -0.0030196969548176803 0.0010033333837231057 -0.0022745454449856575 0.0002395151655725909 0.0006394545251334256 0.0018583636371080172 0.00033821211775031054 0.00043851521243623483 0.001573424179558501 0.002529212125492367 0.002304606040883245 -0.00021987881998277524 0.0013946364316242662 -0.003005878804039887 0.0006208787747186072 0.0032507878953986096 0.002899969628990882 -0.0006463635427556283 9.590907553281409e-05 0.0018693030773041148 0.0005999090481605945 0.00027160606678631723 0.0010403636349082897
39 -0.002421064462865733 0.001163096726691771 -0.0006853871224936278 -0.0012929032190802372 -0.001168967765425482 -4.8645190902114394e-05 -0.0004161935731028808 -0.001532387096719298 -0.0005320967288900001 -0.0033049677524925962 0.0012774516686594353 -0.0032574515893605666 -0.001030290307807586 0.0002619032184743593 0.0012296129003046981 -0.0007504516247389538 -0.00041109670963769237 0.002130645086928721 0.003078741915223579 0.002381774161251322 0.0003016128846924872 0.0015921613629606942 -0.002893354840418925 0.0012719999954682744 0.00285606452774617 0.0027264515360471823 -0.0004476450551244911 0.0008819032044548001 0.0016924839226468917 0.0002881935271885126 0.00019374193676236656 0.0018886128936203258
40 -0.0019416451226964954 0.0015046773666155435 -0.0012534193872031005 -0.001211193542868357 -0.0018393871104044298 -3.783873962088218e-05 -0.0007479354997837706 -0.0019074515997002186 -0.000588225760434251 -0.003876903220154946 0.0019380000608620203 -0.0033332580624119146 -0.0007241290295496583 0.0008712580555208749 0.001622419364960684 -0.0007790000114079205 5.322638072914654e-06 0.00266125799727536 0.003959806418166526 0.002148483849821552 -0.0004318064668275897 0.0017920000846647927 -0.0027840967926632374 0.0015899677476432594 0.002736935482150124 0.002343483792144745 -0.001362161162814441 0.000491096758783134 0.0019356452018743562 0.0010865483538157518 0.0010275483983869275 0.0015450322534888983
41 -0.002386128990873394 0.0011921289955235778 -0.0013001613256018309 -0.0005117741948784134 -0.0014569355101728785 6.699997221960896e-05 -0.0006608387233310139 -0.0017356774125449105 -0.0002609031884452223 -0.003732709677874922 0.001276967801517927 -0.0030590644991236567 -0.0003259354909401267 0.0006768387036337968 0.0013472580786554082 -0.0007804516240984442 -0.0004076451080055126 0.0027582257415258117 0.003188516095941586 0.002501387073988876 -0.0005218709777710178 0.0018023549196039958 -0.002917483876151363 0.0019192580540191321 0.003095774199708455 0.002897225723098663 -0.0007316450395474901 0.0004187096515858185 0.0018613226110896757 0.0007976128704725734 0.0005319032408747702 0.001701064505464127
42 -0.0016099031697282748 0.0008717096418202404 -0.0011972903631695157 -0.0006392580601846755 -0.0014918709939886485 3.7967703387802163e-05 -0.0010540967817970312 -0.001508774186438513 2.706456061493936e-05 -0.003848354833485979 0.0015215806971912483 -0.002855806441608189 -0.0005971290313849045 0.0011045806477927873 0.0013477419457969167 -0.0009788387162130206 -0.00010396768207541637 0.002343290256366374 0.0030708709476335396 0.0025314193429245104 -0.0005253226094458612 0.0011747742650069057 -0.0030272580869120337 0.0017996451713242418 0.0029111935516759275 0.0026870644322761726 -0.0007075160038150516 0.0007795161091639931 0.001621612948515723 0.0006268386834210926 0.0008159032403191011 0.0021642580433117765
43 -0.0019283548040661 0.0011891935118323853 -0.0011180322884859878 -0.00031783870637751066 -0.0009834193774769383 -0.00023522583726463058 -0.0008409677564838691 -0.0017149999934659836 -0.000527677377953472 -0.004082161277878068 0.0019946129670584452 -0.0029596451533448528 -0.0010810000108434788 0.0005321290321467865 0.001198612927128711 -0.000350258061512103 -0.0003909354385424165 0.0020622257443685685 0.003433645132087892 0.0025063225428663917 -0.0004893871073070313 0.0018151291202934039 -0.003034645172339233 0.0017509354985386675 0.0033960322579068523 0.0028627741182478323 -0.0009590321403060619 0.0003291290228052305 0.0016732903557919686 0.000967935441182025 0.0004462258150470593 0.0019422580503047474
44 -0.002447161263027679 0.0005876773915764305 -0.000652419384888133 -0.0004704193567205596 -0.0009824193773731108 -0.0006319355236501583 -0.00023358065382419755 -0.0015368387059659712 -0.0007629676971015626 -0.004022129035870274 0.0019877097337514223 -0.0032067419163673374 -0.0002924516203723127 0.0002929032216930101 0.001837516135926689 -0.0007706129146108945 -0.00034267736707753953 0.0027838386445035858 0.0039622902855156895 0.00216470965214314 7.864514238110954e-05 0.0017334194440815237 -0.0033722903434893177 0.0017400967664152926 0.0027197096797247087 0.0022297741126103866 -0.0009029353642554563 0.0009010967562883912 0.0020208064891067486 0.001043741914233373 0.001148161311228309 0.001332903213258232
45 -0.00158816663606558 -0.0011017333871374527 0.0019001999709871598 -0.0018286333264162142 -0.0006057000670504445 0.0005913333491965508 0.0026578999873891006 -0.002244333388565186 -1.5799953568299923e-05 -0.0009321333505795337 0.0017697667150059714 -0.003939766595006707 0.0017113333291490563 -0.0014077666137988368 -0.0005365333015409609 0.0012557000251642119 -0.001706633196833233 0.003949433289623509 0.0027377999930952987 -0.0008831333291406433 0.0006349332819809206 0.0006538666842970997 -0.001720933333854191 0.0009392333192712007 0.003495266690151766 0.0018240666133351624 0.0003776334720896557 0.001872433284249079 7.106669363565743e-05 -0.0007756333410119017 -0.00011383328431596359 0.0007120666831421355
46 -0.001407599964295514 -0.0009516667186593015 0.0008071666229322243 -0.003001033328473568 -0.0010517000686377288 0.00014729998171484718 0.0013939666767934491 -0.003294666738414283 -0.0006978332725945317 -1.710001282238712e-05 0.0007255333854118362 -0.002914899943728718 0.0022255000226626483 -0.0013472999717729786 7.133336427311103e-05 0.002142233372433111 -0.00064713319685931 0.0030252666406643887 0.002263233360523979 -0.00026516665238887074 0.0005469332715923277 0.0006981333465470622 -0.0008038666487360994 0.00011676662397803738 0.004733800032408908 0.0016648333054035901 0.0009935334189018856 0.0005209666276641655 0.0009433667117264121 -0.00022683334924901525 -0.00045009997362891835 -0.0002568666435157259
47 -0.0001980666022670145 -0.0008855999757846196 0.0012434999473043718 -0.0017874333367217331 -0.0005421333868677417 -3.076670206307123e-05 0.0002190000108384993 -0.0006325334194116295 0.0014556999899165628 -0.0033038666544598526 -0.0018003665977933754 -0.002710433338324947 0.0021166333569757017 -0.001232366628452534 0.0016632666850152115 0.0011910999795266737 -0.001716366609131607 0.0005523666021569322 0.004066900055234631 0.0010135333461221308 -0.0022638000455723764 0.002147766697453335 -0.0006116334116086364 -0.001322666652170786 0.0014836000375604878 5.799915137079855e-06 0.0008765999732228617 0.0007905333596378721 0.002722566740703769 0.00047406664622637134 -0.0006159000215120614 -0.00010119999836509427
48 -0.0006672413166660558 -0.0007352068707154229 0.0008641378969106631 -0.0011880344928017464 -0.0008317586711012249 -9.589657239648032e-05 0.00034244829745650097 -0.0009670000611643853 0.0001962413680930381 -0.0025787586180677892 -0.0016050343863377027 -0.0026138965151466407 0.0018270689751230308 -0.001297448239899401 0.0010324483135201294 0.0014313448316835124 -0.0016467585710102115 0.002283275807838373 0.0048369310459057836 0.0006790345089092594 -0.0016553793248021975 0.001579793119915472 -0.0008832759049255401 -4.896568435501179e-06 0.0020201379585818484 0.0010541723248275832 0.0014670344816263893 0.00020458621744684683 0.0023252069548671617 0.0011273103220195606 -0.00042058619999744257 0.00024675864100070865
49 -0.00017789649628584497 -0.000738344801557732 0.0010588275572758746 -0.0009807241430249193 -0.0003255862533917715 -0.000418965541155495 0.00014989657236206955 -0.0009448966131834634 -8.893104138129777e-05 -0.0029523103284159803 -0.0008378964507599072 -0.002507620662762402 0.0010199310400539302 -0.001452137888730343 0.0008735517722329702 0.0018912069158275322 -0.0016288965105496604 0.0015392758108771823 0.0050989655328208 0.0006843103549507415 -0.0016206551874096602 0.0015934482999627702 -0.001008517290505677 -0.00018482757601806702 0.00234110346906979 0.0010173447472284194 0.001223965511849985 0.00010882761426759756 0.002124206957824785 0.001309379276915871 -0.0005121724138132714 0.0005045862234165443
50 -0.0007045861315544181 -0.000766241364983906 0.0015213103209228802 -0.002023034484189903 -0.0005239310818884907 -0.000219517264009357 0.0006039655270107122 -0.0007496897235576963 -9.365517514103478e-05 -0.002121517249555648 -0.0016045171490485042 -0.002825965473675751 0.0010741379639888503 -0.0017409999654146619 0.0009066896745935082 0.0014634137965160712 -0.0016504482141342655 0.0016124137287863113 0.004719586232034811 0.0005511724297760118 -0.000775103471823968 0.0013551034559174601 -0.0008574827977632783 -0.0006967931137829698 0.0017638965851049229 0.0008716206076346209 0.0017706206718716643 0.0006997241532723099 0.002144724218945565 0.0005827586102331506 -0.0007820689733589774 0.00044724140075388653
51 -0.0019227241051527832 0.0008927930571973838 -0.0011068276247081894 -0.001050241374443807 -0.001430448305247159 -0.00016851727509517865 -0.0005676896772487892 -0.0015868275813459307 -1.5275813925184374e-05 -0.0035437586103116386 0.001508862127907221 -0.003183137917560465 -0.00042168965065402203 0.0008861379224228962 0.0014355172451328614 -0.000434448288207681 0.00026324143581060245 0.001958103384822607 0.003337310330043065 0.0026353103237162375 -0.00016627588574292845 0.0017091035401320149 -0.003477206913320797 0.001193689662613906 0.002818896563659454 0.002446344745514015 -0.0014133102279096231 0.00037613792138190233 0.002164241418258512 0.0002802068544230584 0.00045393103661401003 0.0012769310108931928
52 0.00016251731973045087 -0.0010777241108810593 0.0009741034084762415 -0.0013243103488187853 -0.0008691034986284273 -0.00012693106666496345 -7.793100642096572e-05 -0.0007244483367058223 0.0005040689619159695 -0.0027023793016520232 -0.0013435516357903593 -0.002396620660561141 0.001537172431888958 -0.0008402068513156525 0.0010329655508093279 0.001219275871147241 -0.0013221378743263155 0.0018397240823231123 0.004711172439093734 0.0007111379688059719 -0.0016590690000408232 0.0009089310408634102 -0.0010006207509110842 -0.00013275861545417714 0.0018228276106850084 0.0008295171518794036 0.0014928275887886513 0.00059027587899593 0.0020689655914260395 0.0009447586048265983 -0.00011699999369488194 0.0007418965607688859
53 -0.00029967851151013747 -0.0008568571190283235 0.0017159285214022799 -0.0020624285721818785 -0.00043739291140809655 -0.0006490000139040473 -3.696426444678634e-05 -0.00046164291727888795 8.335712469228643e-05 -0.0023462142723604173 -0.001863892753525371 -0.002475071402256747 0.001750571452638334 -0.0007170713963984911 0.0006296071764414332 0.0021513571409741417 -0.0005275356483512691 0.0016576785190928994 0.0051415357489271885 0.00023396432308280573 -0.0017986428891682798 0.0010807857262469561 -0.0017906786358383084 -0.0013215357191386698 0.0017737500290552685 0.0005518570552729736 0.0009688571319981877 -7.385712082655768e-05 0.0028656786328480977 0.0008381785425756659 -4.296429895995451e-05 -0.00027796427769187303
54 0.00027853575323076384 -0.0006121785554569215 0.0013219285314594994 -0.0017610714328059527 -0.00023410721249612316 2.2928535015255746e-05 0.00037992858233337756 -0.0010583929127148753 0.000609249994860355 -0.0022236071293134175 -0.001054642753193288 -0.0027142856800829967 0.002180535740210741 -0.0010042499676014163 0.0014126785972621292 0.002409107149495477 -0.0006119999535647887 0.001100178514856712 0.005479928596676993 0.0011282500282894553 -0.0017000000292942527 0.0015085714549059048 -0.0011993929095167135 -0.0007673214292611062 0.0016369643209535362 -0.0001276786528511106 0.001394464256009087 0.0002797857515750885 0.0020749286237073 0.00030685711785086563 -0.00020153573755773583 1.4678595886964882e-05
55 1.9107194800328996e-05 0.0023632499952717417 0.0019867857081408147 -0.0007213571958085854 -0.0018535714563248412 0.0020567857053330435 -3.632142839446065e-05 0.00043485714974979473 -0.0006964643503774173 -0.0016896071392693557 0.00023799994232831523 -0.002441785667802573 -0.00048517856963111887 0.0008202142572762179 0.0005081429221068642 -0.0013292500370880589 0.0003842857414773399 0.0003088214039702767 0.0018200713924930564 -0.0015986428635577405 0.00016807138932303393 -0.0013405714208991931 -0.000360178532511262 0.0014232499753623934 0.0015869286331248336 0.0011039284789668663 0.0017105000515584834 -0.0009823571890592575 0.0006645357331893008 0.0005967856938825987 0.002381607181892572 0.003670178582459422
56 -0.0020026784726984 0.0001802142776016678 0.0011944642626206456 -0.0005938214687505804 -0.0007888571786419821 0.0014954285506973974 -0.000392785715510919 9.146421611408837e-05 0.0003858571787662056 -0.0003500714634096117 -0.0005194999414795477 -0.002976964206092297 -0.0013388214335593926 0.0009913214600731277 0.0007445000228472054 0.00045492855549257783 -0.0021258927788169657 0.0007066785224846431 0.003329500065384699 0.0005517499895566809 -0.0014874643046433838 0.0006790714583725535 -0.0017628214492495836 -0.0002452857313203692 0.002180857209688319 0.0005599999390791968 0.0010227857523464731 0.0016214285801002656 0.0015550714774040639 0.001116678590603572 -0.0006603571777564607 -0.0014512857014779001
57 -0.0021945356129435822 -0.000639428584171193 0.0011421428264709124 0.0004001785164291505 -0.0007016786003077868 0.0009548214075039141 -0.00016607144139665512 -0.0008676786601427011 0.0007520714673643981 -0.0006116428864645838 -0.0011298213690419548 -0.0025409999102521397 -0.0006935714180664425 0.0010087500311653588 0.0015292500195625638 5.385713302530348e-05 -0.0023177142128198674 0.0010031428079985613 0.0032771786292349653 0.0004296785461649831 -0.0014002857263091886 0.00013846432661271786 -0.0015361071631819609 -8.832145613268949e-05 0.0014310000447689422 0.00029839279574974043 0.001528500030482454 0.0009413214390536138 0.0010842143248217845 0.0011341428845688434 -0.0009917143049408747 -0.0007362857120045062
58 -0.0002963571116976839 5.7607107529682775e-05 -0.0018469286447465752 0.0007614642859802448 -0.00010278574388524118 0.0028986428670967662 -5.974999839963857e-05 -0.0012823214775770403 0.0004703214548758946 -0.002024714246674973 -0.0008578213754130307 -0.0016390713853330194 -0.0014373928892642393 -0.0005524284829984286 0.00015332142356783152 0.002132857166413617 -0.001989107075912346 0.0013862142576337127 0.002903964274862249 0.00019807140259737416 -0.0006967500105799575 9.435721273933138e-05 -0.0004882142672093843 0.0005781428818798824 0.0018118928564945236 0.003035642792903153 0.002184071446078763 0.00013428573064239963 0.00044496434566099197 -0.00018303570271070515 -0.0003099999448750168 0.0024238928370842977
59 0.00027142863109475 -0.0011053571236386364 0.001415107105588374 -0.0013692500028160534 -0.0007730714818795345 -0.00040921431147061024 0.0004295357287316749 -0.0009542857837264559 -4.3071444841708785e-05 -0.0027342142748238984 -0.0017461784695374913 -0.0030374642426847587 0.0018333928798840912 -0.0017328571120742708 0.0015146071631793997 0.0015192142933041655 -0.0013514999466549074 0.0011301785270916298 0.004561678597903145 0.0006481428873874913 -0.001297285742371709 0.0010415357350471563 -0.0016032143446084643 -0.0009771428589634265 0.0013683214638149366 -0.00011514295121222469 0.0008075356974066901 0.00020078574457979163 0.0026695000643875183 0.0006594285368919373 -0.0005530357215580547 -7.303570912751769e-05
60 -0.0018528213872091978 -0.0010628214638148034 0.0010260714204507946 -0.0019283571247277515 0.00022424990311264992 0.0005924642911330531 0.0019064285664041694 -0.0023679286337677957 0.00044846432852604527 6.357139968063816e-05 0.0013176072025089525 -0.0044684999521190805 0.0015402500196484783 -0.0018821428197302989 -0.0008101785414120448 0.0009077500456312139 -0.0004762498678506485 0.0033349999700606403 0.002149642860916044 0.0005773214506916702 0.0015833927936910186 0.000857250028015447 -0.00103317854726421 0.0003297142710445249 0.004859392878383265 0.0003806785437388628 -0.0003837499170913361 0.00037414281723613385 0.0009114285972568073 -0.0006756785941044134 -0.00043639283727056215 -0.00019621427470285977
61 -1.303566075096439e-05 -0.0014203571190591902 0.0011219285344330793 -0.0015185357229451516 -0.0008657143418011921 9.539281537789586e-05 0.00018864287501076303 -0.000981535783336897 0.0008931785579469371 -0.001688999996466529 -0.0010976784708743384 -0.002105571399299931 0.0012873571779761863 -0.0015421428376742239 0.0005413214551351432 0.0020151071429219364 -0.0014267142230112637 0.001303464234557136 0.005035785750286388 0.000429071463128951 -0.0011806428816011508 0.0009183571819448844 -0.0010767857727062488 -0.0010741428491850716 0.0013977500264965264 0.00030228563056360666 0.0011072499785638814 -5.3178549933363684e-05 0.002332714355101676 0.00022239282926810638 -0.0007590357251631628 -0.0007629642786923796
62 -0.001779821322998032 -0.0003576785758403795 0.0014391428386651178 0.0001282499532473074 -0.00048750004446316907 0.0016986785267363302 -0.0008369285702169041 -0.0006077143656771763 0.0009052143098285471 0.00017582138337145028 -0.0003968570651652824 -0.002167678482887173 -0.001578035694754882 0.00030521428997027603 0.00045732145164428014 0.00012196427061488586 -0.0029842141988670585 0.0006222142339018839 0.0038880714897199403 -0.0002258928683919034 -0.0017092500030620223 -0.000338392799936368 -0.0013350357372213953 -0.0007700714335702027 0.0016190000460483134 0.0004232142268197744 0.001459285749920777 0.0009309642838551164 0.0007926786108458016 0.0003259643043358145 -0.0011917143087235413 -0.0016098571400756814
63 -0.001587964235763398 -0.0006541071925312281 0.0014914642664994712 -0.0019817856955341995 -0.000574678648263216 7.1785917888129395e-06 0.002284642859064791 -0.0029967857920252883 -0.0005771427990371844 -0.0006786786060339571 0.0013296071961771563 -0.003719678509371858 0.0011249642988592054 -0.0019442856677674822 -0.000327357099324997 0.0005230357492109761 -0.0016762141645553388 0.0036739642507330117 0.0028243214058290634 -0.001219964278529265 0.0004357499372937517 0.00020221429336483458 -0.00044571426717863815 0.0013051785535935778 0.004601071453570122 0.0006847499503887125 0.0009535715414261046 0.0016111785379117854 0.0012634643270368023 0.00030849999581862776 0.00025571431199620875 -9.267854537548763e-05
64 -0.00041574995910715576 -0.0009533214158312019 0.0015257499570517602 -0.0013087499911697315 -0.0005970714846625924 8.285711373900995e-05 0.0007755714419285401 -0.0009025357804992902 0.0002986428484551392 -0.002041607121749881 -0.0018622499005037493 -0.003133928539487637 0.0016432143030605012 -0.000979178531062124 0.0013549286148710443 0.0022510714209472227 -0.0005389642402795809 0.0018053571090734164 0.004776928598792958 0.0009527857286489702 -0.001295642885192397 0.0014987500263876946 -0.001710571490028607 -0.0012392500102578197 0.0020936429022445475 -1.5428671239143504e-05 0.0007961071262668286 0.00034846432208723854 0.002304892922568667 0.0002621785305174334 -5.0035731484448274e-05 -0.000771142854188968
65 5.400005050302882e-05 -0.0016476071281691215 0.0011846071068118494 -0.0022210000107796596 -0.0012608214664006872 -0.00028007145218517896 0.0008355000206522943 -0.0005068929209041276 0.00045449999730148453 -0.0023522142764704768 -0.001680249911649818 -0.00282546425822667 0.0023396428888580495 -0.001516499968212364 0.0013800000181488162 0.002193321438556138 -0.0006969999355663146 0.0018783928223586241 0.005482107159748141 0.00024978573076493504 -0.0014711071671626996 0.0019031071715289727 -0.0017203571956737765 -0.0006343571455675244 0.0016217143212478341 0.00044124991420955794 0.0009083571286672461 -0.0002498928367588503 0.002373571493080817 0.0004921428293788008 -9.471430218712027e-05 -0.0006196428481156804
66 -0.0045407777758589 0.0003602962328672961 -4.7259313524355765e-05 -0.0012333703667132391 -0.0008428148678460813 0.004164703719585237 0.0007564814524677651 -9.46666786384648e-05 0.0001910370902570085 -0.0017433333667685037 0.0001892963315455105 -0.0019861481107875953 0.00020644440276858708 -0.001178259241256725 0.0009095926113702633 0.0004522222184783055 -0.0005974814487638434 0.00208037033088557 0.004128666680858091 0.0004030369918500246 -0.001153925940377155 0.0016484074876643717 -0.0019621481414004746 0.0011755555552318347 0.001629629620799312 0.0024271110693613687 0.0006309630558394861 2.8147872028596424e-06 0.0012969259836676497 -0.00023140742484462895 -0.00047988890609876425 0.0007730740967586085
67 -0.0016155925555654835 -0.0013983704115229625 0.001539592570258753 -0.0018707407310743023 -0.0008835186060793974 0.0008869629571024605 0.0022710740743571442 -0.0028298889576237546 0.0006566667125972108 0.00040425922715156857 0.0016315926579948238 -0.0033470740126412472 0.0011784444704298275 -0.0017071481173237164 -0.0011927777409760489 0.001623185215673099 -0.0014338517018283408 0.0035045184971143803 0.0031114074194596875 -0.0005237777562191089 0.0008308888381752358 0.00039607412138677856 -0.0007369999808293802 0.0004658147976173226 0.004120740761411273 0.000813074039157342 0.0006264445438756849 0.0006674814382373976 0.0008222222591198429 -0.0010496666741177992 -0.0005567777574200321 -0.000660148147424614
68 -0.004679777779124884 0.0008316295764719447 -0.00017722227440336374 -0.0009338148110718639 -2.33704184345832e-05 0.0037860740870840986 0.0005722221785281026 7.829628197618554e-05 -5.648142447440747e-05 -0.0026825926378714264 0.0002401481998040927 -0.001650481440703044 0.0003386666487333261 -0.0012314073888033076 0.00032751855474931225 0.0012400370216238553 0.0002038889096756638 0.00204533329276644 0.00320296298229584 0.0007749258667765254 -0.000551481496249498 0.0019208148910870983 -0.0017847036996735605 0.0014208148193709483 0.0011651111007840544 0.002138888851429025 0.0010434815765755182 0.00041085183544998507 0.002369592660451653 0.0003665184900725122 -0.0007002963145539441 0.001633222240747677
69 -0.00482218517572619 0.00035462958341533386 -8.455560924226625e-05 -0.0012480370415788558 -0.0007082963425933418 0.004358000013140823 0.00041174070820152 -5.507408638583945e-05 0.0004521482019131158 -0.0016404815164774104 0.0004051852172576926 -0.0021817036635588417 0.0003047777518750755 -0.0014551851631107707 0.00023933336207712137 0.000889666647977989 0.00020614817751468055 0.0022917407008612323 0.00344029631189726 2.6666609941188385e-05 -0.0010917777932869892 0.0009012963790963921 -0.0018005185141831775 0.002010851839225291 0.0018184074131702935 0.0027469999622553587 0.0013531852929628695 0.0006029999634914997 0.0013229259919306194 -0.00029129631487497437 -0.0006437777944180804 0.0008488148364617869
70 -0.004385333334708035 0.0013859999340234532 -0.00022188893624978072 -0.0014599629600221913 -0.0009496296681593069 0.004385666683514568 0.0008259999699981159 -0.00033029630018669803 0.00025603709366771874 -0.002471777804506322 0.0009369630085226769 -0.0023755555255236148 -0.00028014817831313447 -0.0006860370307953821 0.00045466670093850955 0.0009218518346272133 -4.41851572961443e-05 0.0024912221835822696 0.004062518529180024 0.0004296295885945222 -0.0014415925985236686 0.0018332223127665067 -0.0012054444448073842 0.0017717777814983424 0.0009350740626730301 0.002241185150557646 0.00032974084239901493 -0.00013337039153729738 0.0017869259894791026 0.00022466664463367865 -0.0002476296460911356 0.0009171852100364588
71 -0.004389296301976881 0.0006654814308233283 -0.00034788894710665637 -0.0004398888968690126 -4.1481964419492415e-06 0.004144370386644301 0.0008536666360601817 8.392591135580679e-05 -1.9185128756496987e-05 -0.002667888917063397 0.0012630741106544588 -0.001843740700712294 -0.00047400004890126485 -0.0012709629696069492 6.640743878152635e-05 0.0011371851713327622 -1.1999971724839674e-05 0.0022408518039069517 0.0031046296331893515 -0.00010555560153012198 -0.001038629643584567 0.0014834074902831129 -0.0014309259185446772 0.0012094814635390692 0.0018534444582959015 0.0025152962534102023 0.0009813334294853525 5.555279872000769e-07 0.002207963007364284 -0.00046874076522524573 -0.0008890740853665328 0.0013133703851727423
72 -4.218513021004145e-05 -0.0011994814612316313 0.0012321110736121664 -0.001816481485514453 -0.000757000055509033 -0.00036092595244688845 0.0005168148299735212 -0.0007501852534780348 0.0004939259226914685 -0.0022903333188474383 -0.0015694443459829523 -0.002714185150950841 0.0018837037269905624 -0.0012188888525728274 0.001103925954171077 0.001966814818809292 -0.0010179629100969545 0.001388703651846973 0.00511885188623435 0.0006878889204623798 -0.001357407436848411 0.0014631481716167872 -0.001333777835868575 -0.0009267407386451614 0.0016430741094087284 0.00043337028236473325 0.0008977407253243857 0.00014300003062493892 0.002684925995439429 0.0005959999678587472 -0.0005748888964902748 -0.0003165185097949924
73 -0.004370074079984247 0.0010237777303835308 -6.644448957457725e-05 -0.0004342592588660342 3.314809927596124e-05 0.0041590370528865606 0.0007191851567498546 -0.00010933334488072433 0.00032555560688639096 -0.00270744446337361 0.0010019630119333873 -0.0019465925558540254 -0.0006898889346134469 -0.0010754073909656316 -3.192587583153336e-05 0.0014141111104335221 -0.0004991481341507837 0.0018034444117263236 0.003458407422941592 0.0008404814213497082 -0.0015077037042593238 0.001859777872191949 -0.001493111102953898 0.0019565926066004774 0.001691814805208533 0.0028374073768241536 0.0007925926830567834 -0.00031933334766007547 0.001485703758791917 8.848144864680728e-05 -0.0009150740936295026 0.0013732592730472486
74 -0.000948666697324909 0.0006881851909889115 -0.003671111106760455 -0.0015384444850496948 0.0006152222243448099 0.0010564444067616325 0.0010752221755360046 -7.437038072600478e-05 0.0012512592882019278 -0.001921962961744241 0.001556962948395974 -0.0022189629470066967 0.0014475555265865598 0.0033090369499943874 -0.0030397036828583588 -0.0017698889606873745 -0.0009117777366622317 0.00023781483199585368 0.0012284074263233277 0.0025574073790469104 0.002184814756253251 0.0009995926165073696 -0.0009200370081493424 -0.0009741852085830437 -0.0012164444757487487 7.844443381246593e-05 -0.0007502222113005162 -0.0024002222516746434 -0.0013682592743188488 -0.0013864074480133476 0.0009238888171104783 0.0010103333387868824
75 -0.0025345184786365956 0.0008700740032104983 -0.0017754815468193825 -0.001528370345045847 -1.2037042459404026e-05 0.0015458147617108705 -0.0005557407326974768 -0.00019074076529553471 -0.0004429999714408984 -0.0031504444600108806 0.00016107410461969535 -0.0010153333284203352 0.00013292592484503984 -0.0005057407543063164 0.0018760000001984062 0.0010433703665276644 0.0007578148625152944 0.003385814803617972 0.0011706666641489224 -0.0008323704177099797 0.00018318512485604043 0.0009827037833424078 -0.0033467037051364227 0.0012964814544560526 0.0015018888796610689 0.0018155924993118755 -0.0006271851037766923 3.325920260977e-05 0.0028872222756035626 -0.0010779629767596445 -0.0007432592899055669 -0.000733592564723006
76 -0.0030861153309860337 -0.0008917692377088735 -0.00035165387593084376 -0.0011144615200464614 -0.0006193462221954877 0.0016870384379916897 0.0003227307833395361 0.00021203846937658874 0.001164384665221755 -0.004088807721228267 0.002586461603081821 -0.001914653809623045 -0.0008526538641980061 0.00014742312039463565 0.0012186153863485043 0.00035549998686362343 0.0004287693199540417 0.002113692267672517 0.0036184230747704324 0.0010505384629001268 -0.0005130000175155986 0.0021477308406387097 -0.002646384628650804 0.002010846142813814 0.0034209230932622002 0.003592807683162391 -0.0005609998736942473 0.002072038418331291 0.0019016154390276195 -0.0004248076959181792 -0.001355999984438173 0.0018726153738008668
77 -0.0034816538133712197 -0.00013707695045293524 -0.00041857694304781035 -0.001796384595553928 -0.0010336923609989195 0.0015966538328659506 0.0006877692349707314 -0.0002633076772046759 0.0004307692824323357 -0.00412284618225665 0.003082961613612357 -0.0024839230498121022 -0.0010040769389329047 -0.0001307692011603369 0.0015461153861206884 0.0005937692118235505 0.0005590770093616671 0.0024928076510640006 0.00467830767425207 0.0005939615288158306 -0.0004015000013168901 0.002883653933307729 -0.00235646154704647 0.0017608461376557199 0.003213153856519896 0.0031831538430056893 -0.0013415383325012114 0.0017281538082618052 0.002276038510339836 0.0001233076803216066 -0.0011036538344342262 0.0011343077013197427
78 -0.0010126153345201882 0.003658307599835098 0.00011130763036467564 -0.0038276923123003845 0.00022407687412431606 -0.00043911540482300694 0.001433730769349495 0.0008135769108216314 0.0015289231488658027 0.00048003845194426295 -0.0009130769349912254 -0.0026558076173247313 -0.00021588464285461948 0.001946153835608409 0.0022732692036347892 -0.0003763845821735091 -0.0015168076150495415 9.065383570626951e-05 0.0027668845768158254 0.00047830765386326954 0.0017199615316572958 0.0012610000591778841 -0.0034509616111441013 -0.0018573846357937257 0.0021702692611142993 0.0027904999128972683 0.0018364231185002539 0.0010678077255411504 -0.0020814615048808404 0.00020969222308709644 0.00018692305848862117 0.002680692262052057
79 -0.004084384596073785 -0.0012304230745380314 0.0002979999827892663 -0.0009131538351469387 -1.1923140846192837e-05 0.0008883076672925829 0.0013010384743840685 0.00017857692686308068 0.00022242312717515652 -0.004296000039455696 0.00314223083898049 -0.0023330768756820294 -0.0004893846433753005 -0.0008203461184166372 0.001802576920734002 0.0006037692118507738 0.00014415392629766406 0.0026389614996822695 0.004681269208399149 0.0006133076777377238 0.000207115378893482 0.002813807784919985 -0.0030577692422621813 0.0019398461215762207 0.003192615399781901 0.003047576917407031 -0.0007939998803731913 0.002216999959133458 0.002377576968193842 7.226923312723207e-05 -0.0009598461306618097 0.0008813846148908711
80 -0.004972307690947603 0.0008418076501514476 -0.0006885000447465035 -0.0011743846161362643 -0.0005336154397879839 0.004416000011797923 0.0015069999692339199 9.58076893416896e-05 0.00111861544414401 -0.002467884650776306 0.0007847308068169066 -0.0017866538021105672 0.00047249996098868834 -0.0014430384617298841 0.00033719234096889314 0.001028038444928825 -0.00018042305041140376 0.0024199999685291774 0.0027556538474387848 0.0013662691825839619 -0.0015541538439440327 0.0022475385496643586 -0.0019878461439825166 0.0022702307542203926 0.0010464615479577333 0.0025845384314799537 0.0007172308542067185 0.00017169225667692864 0.002100000054969524 0.00016319227926522636 -0.0003595000173215969 0.0017188846294839794
81 -0.0031958461029437156 6.661535903381613e-05 -0.0007571923538657407 -0.0011467307413113303 0.000369538409778705 0.0010021538283371439 -0.00011100000511550416 0.0007150000227948811 0.00039730773991882766 -0.005064769285336996 0.0016738462184618514 -0.0019281537960033836 -0.001422538448913166 0.00023250004652744302 0.0017802692555750792 -2.423079926162385e-05 0.0008073077713981128 0.002208192263704125 0.002799730747938156 0.00045488459111836093 0.0003632307612301352 0.002401846232644927 -0.0028922692268119696 0.0013494230890780902 0.0031421538531923522 0.0029548461316153407 -0.0006848844921198458 0.0026970768841028283 0.00362292312806508 0.0005992692251591227 -0.0018084999867894042 0.001530461555096106
82 -0.0015719230566621544 0.004293807674772465 0.0035849999420371694 -0.001093307643224342 -0.0031240769850018504 0.0002997307456098497 0.002944884582505508 0.0011721153613717223 4.938463308252931e-05 -0.0006308846092836645 0.0008891922759805591 -0.00181842302453543 -0.0011787692514749675 0.0018399615207901942 -0.0005912307040909162 -0.0010131154334745728 0.00029026921569871216 0.00023800000109566518 0.0010949615030907667 -0.0011818845848140952 -0.0010647307342598932 0.0009105769657673171 -0.0016768461433597482 0.0007172692119358823 0.0006532308090334901 0.00119134610465083 0.0020987692439051056 -8.53846431709826e-05 0.0011245384342216242 -0.0021877308407476028 -1.0961521184071898e-05 0.0018561923330148251
83 -0.001993269170410573 0.003435884521772655 -0.00039519236676054646 -0.0040454230827610725 0.00022934608233089631 -0.0013658077301582894 0.0010868846072228805 0.001168653833211955 0.0014685000685578696 -0.0003996923265871234 -0.0009500384772903859 -0.003380615285515467 -0.0001918461684209223 0.0018645769092612541 0.0026964230480818795 -0.00022788457975436287 -0.0012579999221578385 0.0003564999900006044 0.003800346122051661 0.0010493461248608162 0.0023637692099258015 0.0014235769855216718 -0.004060730846294274 -0.0013145384923868382 0.0021473846460979143 0.0023990383712001718 0.0021374615798077476 0.0011317692764210873 -0.001418884578295267 1.5461461421532127e-05 -0.0008548076998872253 0.001815076895022335
84 0.00010888469786060831 0.0024065384014437976 -0.00021792312495213433 0.0002494230597781447 -0.000992653849922275 0.0018678076795857544 0.0007946153505494854 -0.001241038512279584 0.0014296538562260908 -0.0016169231049179172 -0.0008103460887258945 -0.003179999952758058 0.0006520769081991882 -0.000498115340073687 0.0017655385085023367 -0.00012107689578372698 -0.00223569229106383 0.0025573845822901395 0.003902499984878187 0.001963730758199325 0.0004658076862912052 0.001877807721029967 -0.0008223076908437249 0.0013088846115771537 0.0026344230998522388 0.0032100768884657347 0.001000153882509599 -0.0008459230795359382 0.0011527692370761472 -0.001521076904072498 -0.0006588846086882628 0.0009453846276021347
85 -0.0017285768800110628 0.0037404614446971277 -0.0005483462149501205 -0.0036140769309265753 0.0006724230166023168 -0.0008452307923177544 0.000436038458596718 0.0014403845850140967 0.001338769305500766 0.00018657689976792497 -0.0004459230957973677 -0.00341876913563073 -0.00044361539990999375 0.0023663461279983702 0.0024023845863456908 0.0004757692871722751 -0.0011811153123674628 0.0006235384521110413 0.003158884584151495 0.0011426538246898698 0.0020181153757640948 0.0013056154443452565 -0.0033970000647689 -0.0019818077176191416 0.0018298846485917098 0.002947769132263672 0.002153307728943988 0.001957500037790921 -0.0012574999519319346 -0.00012130777199322787 0.00016576921244939932 0.002781653826017506
86 -0.0017074999621120067 -0.001168153893489104 0.001670076900784177 -0.0021936922925166213 -0.0007713077804790094 0.00044353847288920614 0.0026919615352548696 -0.002660730837165969 0.00023296159731846553 -0.00013969232979714154 0.0012466539080308464 -0.004026846086022628 0.0017935384748852812 -0.0013778076435510928 -0.0006752307302891635 0.0015579615742003976 -0.0010096537029872148 0.003677692286706028 0.003123653855604621 -0.00029165382819393504 0.0007246922507944803 0.0009417308006399813 -0.0009908076698103775 0.000678115360362706 0.0044802307988552805 0.000968846116358271 0.0003903847257158934 0.000898923040669895 0.001129884651163593 -0.0007106153957115916 -0.0003577692058080664 -0.0001925769208285671
87 0.00033307700225402816 0.002203499934134575 -0.00011580774186698433 -3.811539276144825e-05 -0.00048676922933037323 0.0011201538268673734 0.0004272307182523386 -0.0010215385154879186 0.000714846174630041 -0.0020077692707463238 -0.0007458076193310822 -0.0027539614978265422 0.0008199230864053019 -0.0008326537922934782 0.00196157696728523 0.00021107695199764118 -0.0014856922934995964 0.0019787307313750857 0.003929499993458963 0.0019015384336503653 0.001497538440162316 0.0019564230953199933 -0.0012648077021227577 0.0005518077086890116 0.0024454615531095234 0.0024436153524640338 0.000989576959489988 -0.00019446152369849957 0.0018464615613293762 -0.001029269219053766 -0.0005379999996736073 0.0015029230898317809
88 0.000806692393290667 0.0024446922336490108 3.3846106536937164e-05 -0.0002523461589589715 -0.0006986153843732049 0.0011641538395241906 0.0007177691936354117 -0.0015080769923000704 0.0008691923306357169 -0.0017102308002694582 -0.0004646922523254314 -0.003062038420536667 -1.1692308292437632e-05 -0.0010327691872869483 0.002083038503769785 -0.0006698076635634956 -0.0022515384581101197 0.0017316538030102563 0.0037411153585148547 0.0008985384439046567 0.0006471538150575585 0.0009111923192484448 -0.0007113846289799907 0.0010794230989771537 0.0025622307954248614 0.0022528845726740724 0.0009326538789677075 -8.942305934257232e-05 0.0015782307914028375 -0.0011166922900324257 -0.00015361539016549403 0.0004342307936615096
89 0.0006347308439077237 0.0020309614751917813 -0.00029303851736655744 0.0004748076719876665 -0.0004668076911072533 0.0014922307533337376 0.0007194999626125747 -0.001015692361901389 0.0007535769432601788 -0.001992500022214909 0.00031646159578275937 -0.002954653806297686 -2.400002267677337e-05 -0.0008737307415895674 0.0016904231160879135 0.00010426926131073672 -0.0017098845934155039 0.0021817691852517715 0.003827384592463764 0.0009871922934857698 0.000991653825622052 0.0015021923329466237 -0.000897423083258148 0.00033234614686359867 0.003160269270525672 0.002834499962213718 0.0009250384990502006 -0.0006205384583713916 0.0016786153831232626 -0.0018966538303245145 -0.0007340384539789879 0.0011707692398116565
90 -0.004895999990717078 0.00014342303620651364 -0.00049015389399406 -0.0017882307695869643 -0.0007390000481301775 0.004262269236138449 0.0009729615023668605 0.00017680768821894442 0.0009320000668734652 -0.0017765384982340038 0.001020653871259688 -0.001912269193990841 0.0006051538232266187 -0.0020099615257305023 0.0004416538688998956 0.0009963461354625626 0.0005719231099087315 0.002097230733712562 0.0030291153906056513 0.0005270383990136907 -0.0010835000139195472 0.0012674231615024977 -0.00244676923186769 0.0021258846027194522 0.0015359230948468815 0.0024495768951825225 0.0010282693289739725 0.0010226922531728633 0.0017067693003739875 -2.8115410084585445e-05 -0.000179923098935083 0.0014618461718782783
91 -0.003485769202458099 -0.0008853077037761417 -0.000549423108168412 -0.0007370769145871656 -5.18462172924326e-05 0.001346076909192981 0.000716500003573646 0.00016684615785869447 0.0001449615899148809 -0.004326500029912075 0.003421615450441515 -0.0019316538086618844 -0.0012053846506975018 -0.0007381922914646566 0.001142923075419206 0.0008173845999408513 0.0005925000866857142 0.0022328076414011707 0.003683576897646372 3.8192292917161605e-05 1.6961528812176905e-05 0.002520384694574974 -0.002590615385158274 0.0011769230382364744 0.004166846190435955 0.003467807680583344 -0.0006648844920653993 0.0018672307246910909 0.0027132692596821403 -0.0005967692453011225 -0.001769769213681754 0.0015457307678074217
92 -0.0021259230326485033 0.0040028075992058106 -0.0004996539126015984 -0.004013730766578542 0.0006788845550125608 -0.0010430000245553227 0.0008134230640560138 0.0008059615219490996 0.0021997308536251346 0.0005803845907883862 -0.0004911153983602372 -0.0032362306990482747 0.000520653821205577 0.0019995769073900124 0.0023853845867471625 0.00012307696250410608 -0.0008647691586072772 0.0005478076838279286 0.0036207691837961855 0.0013063845958990546 0.0021372307606865293 0.001370730832254944 -0.0032074231578287883 -0.001451846173530122 0.0022025384935729494 0.0018016152988331248 0.0025213077371098245 0.0015015000300571467 -0.0013824999545109817 -0.0002251539195780284 -3.903847223577591e-05 0.0023913845831814865
93 -0.0010401922616158398 0.003957038360218016 -8.061544604760666e-05 -0.0034115769382109507 0.0008068461006937119 -0.0009197692572622775 0.0004248846170622318 0.0011263845940098131 0.001670384689882317 -2.880771241437357e-05 -0.00018476924910478725 -0.0028970383786704936 -0.0003655384733484915 0.002160346135497093 0.0024851538160314355 -0.0004203845769202766 -0.0018073076151687508 0.0005771538372545575 0.002612538420810149 0.0013826922961295797 0.002640769223664672 0.0015691154269286646 -0.00382130776415579 -0.001657269247516524 0.0020487692650371734 0.0024694614515353283 0.0014003461793226262 0.0013148846494284673 -0.0018930768923242935 1.0769171729827156e-05 -0.0001646153933296983 0.0025239999612005283
94 -0.0012391153398381833 0.003605499881534622 0.0009646153188301609 -0.003965038482140069 0.00027923070145054505 0.00016538456839043647 0.0006156153610320941 0.0011833076745320936 0.0015653077905601375 0.00023938459120332621 -0.0012992307932178776 -0.0020794999157330426 -0.0004987692361912475 0.0017618845942286919 0.0020185768998299655 0.00010603849883549489 -0.001217461447455347 0.0008641538420656266 0.0035450384558106843 0.0005663461320532056 0.0023009615139856646 0.0014899231341237633 -0.003142307778594281 -0.001262307727301959 0.002732500019751919 0.0021742306730280127 0.002577038514293515 0.0018694615752722782 -0.0018384999678416464 -0.0003501539311121003 -0.00014292309060692787 0.0021865769119288484
95 -0.004046807673428423 0.0004597691899666992 -0.0005658462049233584 -0.0013263846093860383 -0.0005752692858760173 0.0043813846143446146 0.0010381153610628995 0.000366346151237779 0.0014619616064849722 -0.00260576925938949 0.0010763846439658664 -0.0015443076566113562 0.00014915381661222244 -0.0009330384513864723 0.0003377692594837684 0.0007914999889460608 0.00018165388050524949 0.0019252691977621557 0.002615384632148422 0.001402076887853372 -0.0015582692509409613 0.0014992693076447512 -0.0021187307798894695 0.002127615394084177 0.0008263846214574117 0.0023339615078069842 0.0007460000891184721 0.0006018845714816751 0.0018141923803621186 -4.0423097603846916e-05 -2.0884633368740862e-05 0.0022711538476869464
96 -0.0037874230441117948 -0.0007127692448333479 -0.0003721923326688389 -0.0012499999793362804 -7.180775551555249e-05 0.0009739999827266169 0.0004242307592134099 0.00016100000427216472 0.0001062308212847431 -0.00434176927844349 0.002359346235327673 -0.0017309615001907402 -0.00036146154161542654 -0.0006971153421685672 0.001414076926616522 0.0009241922906277558 0.0008166923866016217 0.002029769187524485 0.0037856922986415718 0.000952538433081757 0.0005228461433524409 0.002974615456948343 -0.0029580000040228837 0.0013963846000618874 0.003452038473019806 0.00307692307083366 -0.0006003460316256118 0.002293307659363983 0.002881115437888254 0.0002706153659696261 -0.0015737307593763734 0.001877884617827546
97 -0.0018911538052354725 0.004350230661937251 0.00011069224106344896 -0.0035911923114326783 0.0010638845403893636 -0.0011463077154565747 0.000372076907716781 0.0007777692234622708 0.0015330385379526818 2.638459745167683e-05 -0.0007821923169943218 -0.0025131922213684167 4.192299316995419e-06 0.0021967307503263536 0.002244538439509387 0.0003953846507311727 -0.0012309999225320867 0.0002943076833616942 0.0036301537989996946 0.0011279615125833796 0.0019212692255118431 0.0006665000468134307 -0.00424973083471951 -0.002081000028388539 0.0021368077230783035 0.0018485383748506696 0.00162923080922785 0.0016235769524847944 -0.0012979999827131485 -0.0006289231353618491 -0.0007808461445025527 0.0020627307374245273
98 -0.001040769180130715 0.004193538361085722 -0.000442730832079318 -0.004118769248844518 0.0009470768810178225 -0.0009555769535766628 0.0004289999882390615 0.0006727307591063436 0.0018012308415703815 0.00011380767010940381 -0.001166615392811274 -0.002646423002121222 -0.00039430770826024504 0.0017301922735686486 0.0027709615219814274 -0.00021673072926485195 -0.00094399992219853 2.492305849535534e-05 0.00281380765283337 0.0007881538208144215 0.0018420384529655655 0.0013455000589601696 -0.003854730835882947 -0.0013972692378536942 0.0018416154086410713 0.0018233075926008706 0.002183846190186719 0.0016781538792061978 -0.001658923049734977 -0.0006072308415941035 8.361538549741873e-05 0.0022393845854542004
99 -0.004011615348505215 -0.0005097307775241251 -0.0004743077157539889 -0.0009624615267966874 -0.0005776923761074543 0.0017216538354449978 0.0007916153915105567 -5.8499992519500665e-05 0.000821038502880793 -0.003950923112615083 0.0022948077659328612 -0.002156999955122256 -0.0005293077198215402 -0.0003625768899487761 0.001218038467833629 0.0005920384428463876 6.669238903738845e-05 0.002608423038439539 0.0037586922900607954 0.0010147307576307168 -0.0005088846105186698 0.0028960000826583174 -0.0025154999927438507 0.0021534615029500295 0.0036410000197625216 0.0038433846068353606 -0.0005897691086060009 0.0016418461035265443 0.002187423113635025 -0.00022119231904910592 -0.001694615368391029 0.0013203461555979
100 -0.0013453461030551877 0.004346730680061648 0.00032784607509921235 -0.003359961536681602 0.0004265383960535893 -0.00030473078704045084 0.001359192295449947 0.0008024230603321205 0.0024168846876608976 -0.0003903077113836144 -0.0011284615426960115 -0.002394653770632151 0.00030584614992571564 0.00202419229138356 0.0020672691932234625 -0.0002936153480102523 -0.0012110383843089668 0.0006663846098280584 0.0027204999843469034 0.001133846128001236 0.001959999994141981 0.0006817692953448456 -0.0031874616196056684 -0.0022816923418968846 0.0024948077379331854 0.0018074614613746794 0.0013581154288168852 0.0015167692595591338 -0.0015221922871065685 -0.00042588468596267584 -0.0008829615454977521 0.0023503076607504715
101 -0.001905230728040736 0.004016884522011073 -0.00016630775476537214 -0.003736730772988477 0.0008244230232846278 -0.0008035769457749736 0.0004706538202299271 0.0007073461386496022 0.0022701539205277534 -0.00015673079178668559 -0.00030800002535285713 -0.002508499931676712 0.0005159615315138721 0.002689730734206163 0.0018923845804797916 0.0004751923328373008 -0.0009446153114997566 0.00026142305936306144 0.003653653825704868 0.0012829230399802327 0.0019823076816884657 0.0013097308289546233 -0.0038506539175824192 -0.0018509230973834817 0.0019725000266379747 0.001965922988557185 0.002403923123403309 0.0019287308028791673 -0.0016876922756917058 0.00016453837340052886 -0.0008325000168182529 0.0024430384331096252
102 -0.0012860768597770052 0.0032956153064822922 -0.00035938467940118594 -0.004049538471847951 0.0006829999396219277 -0.00029473078253571515 0.0009442692216907744 0.0009485769076211279 0.0024198077510216255 -0.0003709615624617212 -0.000519884624316966 -0.0024644999190198947 -0.00039546154528999556 0.0022031922887365976 0.0020467307364854673 -0.00042919227360891033 -0.0018654230035071333 -4.669231622336576e-05 0.0028220384310071287 0.0010827692010654854 0.0021037692226505336 0.001630730832962749 -0.003414576987359816 -0.00209800001455453 0.0017841154096039156 0.0021648845286108553 0.0015535384982985517 0.002085423103730696 -0.0023361922884270405 -0.0005098077661107079 -0.0007156923216266128 0.002252269200443362
103 -0.0018741153303730802 0.0035010383625586447 -0.0002056154419103852 -0.003515461547627078 0.0006019999413043619 -0.0013100384866657595 0.0014548461446023653 0.0007126538355525833 0.0013435000659788225 -0.0005035769539133001 -0.0011548846327619126 -0.002568961464860947 -0.00036376924701751425 0.002652769227727101 0.0023695384331334094 0.0004992692780573494 -0.0010261922199368621 0.0006845769038101515 0.003802115348382638 0.0015417307418269606 0.002248153840460313 0.0011412692927898695 -0.0032796154510623845 -0.0024090769601081354 0.002135038492269814 0.0025580768303300897 0.001744846196603388 0.0019058461654752207 -0.002079115360034988 -0.0007363462153499803 -0.000768538465938316 0.0019036922738170968
104 0.0007182400731835514 0.0014956799428910018 -0.0002489600476110354 0.00011192000471055508 -0.0003810000227531418 0.0014910399785730988 0.000471399957605172 -0.000634120054601226 0.0016950000215729232 -0.0005581200052984059 -0.0010532399517251179 -0.0029464399605785728 0.0011840399901848287 -0.000179279958611005 0.0014468000270426273 0.00030404002871364355 -0.0011125199787784367 0.001162719966378063 0.004553560009226203 0.0015587599948048592 0.0009181599784642458 0.0023153200326487423 -0.0010884800087660551 -0.0001785199751611799 0.0024520400376059114 0.002438919968844857 0.00047784002148546276 -0.000591279985383153 0.0014774400158785283 -0.0027436799788847564 -0.0007282400131225586 -5.075999069958925e-05
105 0.00043748007738031447 0.002142639933153987 0.00027103994449134916 -0.0007059599924832583 -0.0007789600075921043 0.0018645999825093896 0.001186719956167508 -0.001412960052548442 0.001804840019758558 -0.0010830400162376464 -0.0007675999373896047 -0.003061199958974612 0.001176719981012866 0.00027240005343628584 0.0019277600385248662 0.000228360032197088 -0.0018620399676728993 0.001965959982480854 0.0033548400085419415 0.0021471599955111744 0.0013014399935491383 0.0015951200341805815 -0.000841880002990365 0.00044892001547850666 0.0020931600290350614 0.0020702799837454223 0.0002947200229391456 -0.0005497999954968691 0.0010013600229285657 -0.002135759987868369 -0.0007160400133579969 2.983998041599989e-05
106 -0.003005519955186173 0.0009187999414280057 -0.001555640048463829 0.000487240026704967 0.0008464799914509058 0.001841959977755323 0.00028763999842340126 0.0009032799881242682 -0.00040767997983493843 -0.0044356400310061874 0.0016048800322460012 -0.0016530399939074414 -0.0012798800365999342 -0.0009416400128975511 0.0011655200086534024 -5.300001008436084e-05 0.00028096004272811116 0.004609319977462291 0.0018013999424874782 -0.0018549200566485525 0.0003878399496898055 0.0010646800929680466 -0.003342479994753376 0.001944919971865602 0.0017166399932466447 0.0013348398823291063 -0.0008095198834780603 0.0006629199330927804 0.0035056400252506136 -0.0013576400023885072 -0.00057984002167359 0.00017816001549363135
107 0.0007823200721759349 0.0019186399318277835 0.0005426399636780843 -0.0001633600052446127 -0.000697760003968142 0.0016503599821589888 0.0012727599500794895 -0.0010949600525782443 0.002403600034158444 -0.0011312400153838098 -8.583995222579687e-05 -0.0028115599393640878 0.000574319998268038 -0.0007035599553637439 0.0014864800311625004 0.0005658800317905843 -0.001634359984891489 0.0014685199712403119 0.003821720005944371 0.0014787999913096427 0.0006404399801976979 0.0017324400367215275 -0.0011855200119316577 0.00018096001469530165 0.002574720031116158 0.002998639983998146 -7.819999358616769e-05 -0.001511079976335168 0.0009067600010894239 -0.0027601599926128984 -0.0003370000049471855 -0.000218600002117455
108 -0.0016761199512984604 0.003942519901320338 -9.944006393197924e-05 -0.0039012400043429807 0.0006328799389302731 -0.0008178400236647576 0.000982239990553353 0.0009875599839142524 0.001898320074978983 3.331998130306602e-05 -0.0006498000113060698 -0.003033599912960199 0.00010803998913615941 0.002218719981610775 0.0025241599697619676 -8.595995837822557e-05 -0.0014366399182472378 0.000523599989246577 0.0033358799666166304 0.0010222399700433016 0.0021272799908183516 0.0012954400619491935 -0.003819840073119849 -0.001955360022257082 0.0022256400319747628 0.0024444399075582626 0.002014040044741705 0.0015478800307027996 -0.001903279967373237 -0.00030648007756099103 -0.00039304000325500964 0.0024107199674472213
109 -0.003102599958656356 0.0012782799266278745 -0.0014330000599147752 -0.00020307996193878354 0.0002904799859970808 0.0021721599798183886 -0.0002830400163657032 0.0008867999872018118 0.0012336000100185629 -0.0033534800162306057 0.000497080025379546 -0.0014644399972894462 -0.0010351200262084604 -0.0008262799819931388 0.0009268800122663378 0.001121920004952699 0.0005355200392659754 0.00453915998339653 0.0013381199724972247 -0.0014124800497666002 -0.0004416400450281799 0.0015902001177892089 -0.0038740799948573114 0.0011862399784149601 -4.056001314893365e-05 0.001987279886379838 -0.0012532799097243696 -0.0005156800447730348 0.003476920041721314 -0.0010469600115902721 -0.0007794400420971215 -0.0006391199678182602
110 0.0009617600112687796 -0.00039704002032522114 0.0025092399911954997 -0.00018404002184979618 -0.0023346800496801736 9.63199744001031e-05 0.0025165600259788334 -0.0011351599788758905 0.0011376799736171961 0.0015140000404790044 0.0013729999633505941 0.0005662399536231533 -0.0006328399630729109 -0.0016716400347650052 -0.0021523199637886138 0.0020490800333209337 -0.0005955600319430232 0.000324560014414601 0.002272599982097745 -0.0017450799699872733 -0.00013716000481508672 0.0013504000054672361 -0.0009571199864149094 -0.0005624000076204539 0.002168240041937679 -0.003184120040386915 -0.002135159998724703 -8.660002611577511e-05 0.0018088799361430574 -0.0013062800280749798 -0.0012416400178335606 -0.0006886399770155549
111 0.0008098000718746335 0.0020999199291691184 -1.0920051136054098e-05 -0.0008170400280505419 -0.001012120004161261 0.0020757599791977554 0.0010805199577589518 -0.0011138800569460727 0.0012787200183083769 -0.0015554400091059505 -0.0003855199430836365 -0.003289479955637944 0.0006701599981170147 -0.0005711199620418483 0.0018606400350108742 -0.00021475997054949404 -0.0020365999930072576 0.0010638399585150182 0.004400960011407733 0.001801679991185665 0.0005214399774558842 0.002196920025162399 -0.0008699600119143724 0.0005136000143829733 0.0022701600310392677 0.0019884799848659896 0.0007549200172070414 -0.0010124399838969112 0.0011978800198994576 -0.0025886399904266 -0.0007050400134176015 0.0006023199995979667
112 -0.0034126799751538783 -0.0012680800119414925 -0.0002391200262354687 -0.0013235999859170988 -0.0006055600754916668 0.002008599966065958 0.0006373200021334924 -3.843999860691838e-05 0.00162660004090867 -0.003009280036203563 0.003019040077342652 -0.001569399962972966 -0.001228040000423789 -0.0005992399854585529 0.0006753999926149845 0.0012122799758799373 0.0003816800971981138 0.0015240399655885993 0.0039382800087332725 0.0007481999963056296 6.867999443784356e-05 0.002207840110640973 -0.0027975200081709773 0.001042239991365932 0.0030087600182741882 0.003112840000540018 -0.0010749998956453054 0.0014106399595038965 0.0021903200482483952 -0.0012886400165734813 -0.002124640003312379 0.0002323999861255288
113 -0.0027595999592449514 -0.0007077600108459592 -0.001041120065492578 -0.0018668399594025686 -0.0004407600685954094 0.0018462399870622904 -0.00018419997941236942 0.0010394000222731848 0.0009906000409682747 -0.004206760027445852 0.0018654400546802207 -0.0029329599615448387 -0.0017273199977353216 0.0006056000338867306 0.00137728001922369 -0.0004051600466482341 0.0009566400886978954 0.002318719960312592 0.002433159984648228 0.001064399997703731 0.00015536000253632665 0.0022799200983718037 -0.0030721599946264178 0.0017294800182571634 0.002294640010222793 0.00339967998676002 -0.001681719896150753 0.0021565199579345064 0.00286292003816925 -0.0010994400008348748 -0.0021258799952920526 0.0007243600161746144
114 -0.0018982799339573831 -0.0002737599890679121 -0.0021770400513196364 0.0008864400070160627 -1.912003383040428e-05 0.0018797999934758991 -0.001212640033045318 -0.0007482400178560056 0.00019164002951583826 -0.0009798400188446976 0.001413240095716901 -0.0019180399401375326 0.0004717599682044238 0.0006197200389578938 0.0019698400143533944 0.002006360033992678 -0.003377599976956844 0.0014636399759911 0.0020395199581980704 0.0009661600086838007 -0.00024327998282387851 0.0016494800662621857 -0.002733400004217401 0.0014651600207434966 0.0025502400123514233 0.001587559973122552 0.001108320038765669 0.0003199200285598636 0.001741720053832978 0.00075055998750031 -0.00016611997969448567 0.002159319994971156
115 0.0008726400730665774 0.0017648399341851472 2.751994819846004e-05 -6.324001587927341e-05 -0.0010371200082590804 0.002160599963972345 0.0006404399595339782 -0.001268280059157405 0.00225956000838778 -0.0005819200281985105 -0.000210319931502454 -0.0026333199605141997 6.000127177685499e-07 -0.0007401999735884602 0.0012448000349104405 0.0004706400237046182 -0.002012799970107153 0.0014709599711932241 0.00408784001134336 0.0017351599968969823 0.0010823599831201137 0.0011489200545474886 -0.0010366000141948462 0.00016388002433814108 0.0019619200215674937 0.0024541999734356067 0.0005785200151149183 -0.0011766399908810855 0.0011142800166271628 -0.002640519984997809 -0.0010474800132215024 -0.00015756000299006702
116 -0.0033016249447731147 0.001131208269119573 -0.0011223750413288751 -0.00011149996134918183 0.0003115416523845245 0.002061291642651971 0.00032908333287196 0.0008746249873183842 4.900001886198879e-05 -0.004098708370293025 0.0010786667050221392 -0.001730124993703915 -0.0009969583528193955 -0.0005847499948382998 0.001614666679718842 -0.00027616668133608374 0.0002664583771547768 0.004628083319403231 0.002425083289078126 -0.0014364167242698993 0.0004209166145301424 0.0009601250979661321 -0.003813750000214592 0.0024387083230976714 0.001256958307446136 0.0012697498799146463 -0.000989041549473768 0.0007697499319571458 0.00326283337684193 -0.0011163333280516479 -0.00033087502864267054 -9.545831320186456e-05
117 -0.0032259583179741944 0.004495124986230318 0.001287791678502496 -0.0013912499998696148 0.00045849994057789445 0.0014682083237858023 0.0011014999887872061 0.0007647083123932438 0.0014063333411892625 -0.0016503333463333547 -0.0012515833526170657 -0.002786208341300759 0.00010629166596724342 0.0001851666165748611 0.0012275000578180577 -0.0004878750187344849 0.0022546249529113993 0.00030158329658055055 0.0038182499120011926 -0.00031550000130664557 0.0005270416198375946 0.002442125021237492 -0.0008034166385186836 0.0001720416512398515 0.0019225834184908308 0.0012361666401072096 0.0021741250614771466 -0.0017917916884471197 0.0017210000169143314 -0.0008752500919702774 0.001519791682464226 0.004046666634773525
118 -0.004893583258914684 -0.0005217083768608669 0.002290500012046929 -0.0005030833757094418 0.003195374981563267 0.0013034999853213474 -0.00024566669738608954 0.0007271666202844548 -0.0017057916461453715 -0.0013572500077619527 -0.0008796665600433092 -0.004237666579456345 -0.000879999993533905 0.00044779172458220273 0.0008771250431891531 0.0013667499855121907 -0.0016511665744474158 0.0013474999504978769 0.0042104166544352966 -0.000851458355706806 0.0003750833032730346 0.0024809583458894244 -0.0008078333206261353 -0.0006385416618286399 0.004384916692894573 0.0023836666029334688 0.0006335000810698451 0.003145125025184825 0.003054375095719782 0.0008927500045198636 -9.183331712847576e-05 0.001221874985882702
119 -0.0002441666789915568 0.004643874994750756 0.002530083285212944 0.0005580833591617799 -0.002561541744701875 0.0010677082997669156 0.0023642083133381675 0.0010253333057335112 0.0005226666882360101 -0.002274624951799827 -0.0009450833761851148 -0.0012844582809824108 -0.0022219166761108986 0.0009646249867122 0.0009032500868973633 -0.0013258749968372285 0.00010941665095742792 0.00020624996735326326 0.0018867499699505668 -0.0005634166360929763 -0.0011094166814776447 0.0004953333846060559 -0.0014124582715642948 -0.0004624583646849108 -0.00018179162725573406 0.0003676666140866776 0.001910875074827345 -0.0011852500271440174 0.002078291671447611 -0.0016420417353704881 -0.0019782916618472277 0.0023134583219264946
120 -0.0035871249747287948 -0.0010132500174222514 -0.00017187502635351848 -0.0016506666464313942 -0.0004724167423167576 0.0015749583168750785 0.0010252083317633758 0.00026112500518138404 0.0012080000547030068 -0.003740791692204463 0.0026598334073545025 -0.0022317499570666164 -0.0006619583485492816 -0.00019629163337716213 0.0013139166597587366 0.0011244999792931292 0.0009168750875687692 0.0016291249654993105 0.003986000005776684 0.0010526666580214321 -7.812501038036619e-05 0.0028744584293842004 -0.003158333339039624 0.0012962499840796227 0.0033518750278744847 0.003377416665898636 -0.0014016248836317875 0.0016923333005252061 0.0025806250475094807 -0.0009312916875690765 -0.0019743749993115975 0.0007761249871691689
121 -0.0029093749581079464 0.0005952499389726048 -0.0012743333772959886 -7.27083000432079e-05 0.0003071249811910093 0.0025527499565214384 0.00018729166337531447 0.0007201249847336536 0.0011126666745440161 -0.003068083370938742 0.0011098333761765389 -0.001264083329033383 -0.0013065833336440846 -0.0008053750158675635 0.0006794583362837633 0.00032208331443446997 4.837505184696056e-05 0.0039700416624934105 0.0019882916434047124 -0.0011942083801841363 0.0004571666189197761 0.000678458459636507 -0.003589333335791404 0.0018366250036100003 0.0004082083056952494 0.0008762082240233818 -0.0012427499035159901 0.0001371249363728566 0.002993916711905816 -0.002110041670675855 -0.0008999167112051509 -0.001246874996771415
122 -0.0012454582453453138 0.0006392083111374328 -0.002026500059704025 0.000952833341822649 -0.00021625003561590953 0.0024847499868580294 -0.0010429583498989814 -0.0008889583808316578 0.0011692083642932023 -0.0011321666816002107 0.0008663334089457445 -0.0020900832642685905 0.0007946666434387831 0.0013442917309779052 0.0015852916694711894 0.0010933333711970288 -0.003455541610795384 0.001938791627859852 0.0016024583019316196 0.0006858750421088189 0.0006255833068280481 0.0004884583710615212 -0.0011981666769618944 0.001732916680945588 0.0031095000085770153 0.0020390832893705615 0.0014842917504817403 0.0001657916921734189 0.0018807083979481831 -8.249997821015616e-05 -0.0002788332979738091 0.0023319583172754696
123 0.00026258332339542295 -0.0003450000228137166 0.0013736249869301294 -0.0008247499899880495 -0.002573625034225794 -0.0005746667023534732 0.0014212500148763259 -0.0005099582934538679 0.003409666601025189 0.002196791688523566 0.0017437916321796365 -0.00020545839349021358 -0.0021323749836786496 -0.002610375032721398 -0.002379291641166977 0.0012280833446614754 -0.0004825416690437123 0.00046616669654516346 0.0038632499878682816 -0.0028822083647052446 -0.001569166683111689 0.0008470416845132908 0.00012695835903286934 0.00032149997423402965 0.0016065834036756617 -0.002932666684500873 -0.0013819166988469078 0.0002598749488242902 0.0017204582807911113 -0.0006190416315803304 -0.0014767083096861218 0.0006762916794590031
124 -0.0023269166158570442 0.00027233332123917836 -0.0013227083794239054 0.0011709166671304654 0.00044179163584582665 0.001619458318600664 1.6874982065928634e-05 -0.0009252083852212915 0.0001487500314093874 -0.0013566250263465918 0.0014684167478359693 -0.002543374919165823 0.0011882082993300476 0.0002958750555990264 0.0022179166650554785 0.0013622916982664417 -0.003763874953923126 0.0025078332958704173 0.002753874946696063 0.00021220835818288228 0.0014057083196045521 0.0012100417273662363 -0.001643833341707553 0.0016559999912715284 0.0028621666739733578 0.0014484166264689218 0.001231875076579551 0.0003228333613757665 0.0023963333878782578 0.000456000028255706 0.00015033337695058435 0.001258124995122974
125 0.0008767500755008465 0.002146041593126332 0.00010587494701515728 -0.00033779167764199275 -0.0009219583389494801 0.0017332916480275646 0.001028458287388882 -0.001019958391225373 0.0018673333541604127 -0.0012122916838658664 -0.0007040832685258162 -0.0033399999545054015 0.0006178749984731743 -0.0003431249543458155 0.0019070417038165033 0.00035195836244383827 -0.0015773749825408838 0.0015738333046707946 0.0041417916751621915 0.0020807499919707575 0.0009777916444969985 0.0017714167042868212 -0.001324041678647821 0.0003812916850923405 0.002261416697971678 0.002691333304331541 0.00032079169007677894 -0.0010027499811258167 0.001459750014570697 -0.0023394999880110845 -0.0008523333429669341 0.0003699166651737566
126 -0.000989291681131969 0.005455249983545703 0.0011136666338037078 -0.0014993750810390338 -0.000254958353859062 0.002489291703871762 0.0023718333929233872 0.0018569582931983557 0.001323750048565368 -0.002195999962471736 -0.0014663332725225093 -0.0008189167117507168 0.002932833294228961 -0.0009502916703543937 -0.0007981250188701475 0.0020285416321712546 -0.0014495416447365035 -0.003051666685981521 0.0009584166934170449 0.002424708357769608 0.0016855000115659398 -0.0008498749739374034 -0.0009165417709482426 -0.0010956250862363959 0.00371179167026033 0.0028878332377644256 0.0018778751085240704 0.001721500023753227 0.0012111666025399852 -0.0011155000878109906 -0.0018891667229278635 0.0042030416225316
127 0.0004081667381493996 -0.0017279165919414179 0.0013614583216015792 -0.003769041652655384 0.0016919583049457287 0.0004940833120296398 0.0017041249523875497 5.52084117468136e-05 0.0008900833101203413 0.0019735833358633195 -0.0020729167057046047 -0.0011763333895942196 -0.00020658329594880342 0.0012457499591012795 0.0022369999933289364 -0.001115833346072274 0.00019212505503674038 0.0020537500525582195 -0.0018046666809823364 0.0026777499673092584 -0.0013319583813427016 0.001630999932785926 0.001915333382157769 0.002229541578950981 -0.00038400001358240843 -0.0001854999991337536 -0.0004377499817564967 0.0012828332989253493 -0.0016842916472038876 0.00034791667470320437 -0.0031671250541573195 -0.0003252083164018889
128 -0.005381874908683433 -0.0016610416787443683 0.003104249980121191 -0.0016424166897195391 0.002707124969068294 0.0014662499755407528 0.0005681249776898767 0.0008898749507958806 0.00041012500863265206 -0.002496541666914709 -0.00136795826801972 -0.0040748749634834285 -6.62916633397496e-05 0.0006105417077530243 0.0016908750112634152 0.00022737495843709135 -0.00213941658269808 0.00020812495252660787 0.002420041690735767 0.0006133749702712521 -0.002717375037415574 0.0026437500394725553 -0.0012961250322405249 -0.0004757083206641255 0.0025945417194937668 0.001244416604701352 0.00014520835732885948 0.003307874998426996 0.0038681250989611726 -0.00024649999492491287 -0.0005800833702475453 8.254162094090134e-05
129 0.0002956250282295514 -0.0006476250079382831 0.0022408333479688736 -0.001351166728757865 -0.002662666699810264 0.00013995828824893883 0.0024919583462785035 -0.0022978333217906766 -5.658332778087546e-05 0.000673458373057656 0.0010647083351310964 4.999850110228484e-07 -0.0018144999400343902 -0.001814375044583964 -0.0015528332817969688 0.002776916677248664 -0.0022398750127952858 0.0003262500025205857 0.0003359166342609872 -0.000641666638936537 -0.0008443750533236501 0.00042237503415284056 -0.0005927916499786079 -0.0013034583632058154 0.002860375049446399 -0.0016890833891617756 -0.0012470833441208622 -0.0006735417215774456 0.00024799995905292843 -0.0009623750274840859 -0.002440583375573624 -0.0015184583171503618
130 -0.004627875012374716 0.00045091661255961907 -0.00040391671609540936 -0.001880249993215936 -0.0004246667279706647 0.004493833341257414 0.0018002082909636858 0.0004282916605310068 0.0015303750744048255 -0.002134166691879121 0.0010239167016455515 -0.0018305416246372868 0.0004233333056617994 -0.0013667916694733624 0.00035966668898860615 0.001596833314882436 0.0006491666948325777 0.0014249999730964191 0.0028993750262695053 0.001433499951720781 -0.0012105000132578425 0.002171958435307412 -0.0025867083362148455 0.0014227500062891825 0.0005411250167526305 0.002013666642596945 1.4291742748658484e-05 9.966663310478907e-05 0.002485916733955188 -0.0005148750393952165 -0.000528000035653046 0.001207875000545755
131 -0.0034814347125812556 -0.001505130491948322 0.0027068260615519452 -0.002239043500436389 0.0038418695292658294 0.0014492173757626797 0.0020976521384158254 0.0005343477782646559 0.00013534783916522588 -0.001547130447326471 0.0016145217884078866 -0.004012565117195861 -0.0005262608996734185 -0.0007500434243727638 0.0008966956773529882 0.000488391290317573 -0.0020700434081094422 0.0010168695007450879 0.0033193043048453073 -0.002543173968265562 -0.0019699565119757926 0.000590478282664781 -0.003027043493879635 -0.00013599997581205452 0.0033193044060760217 0.002620173840905013 -0.0005007825232536087 0.0026785652051963234 0.002058174018241951 0.0005458260926863421 -0.00033226084601862925 0.0005292608503900144
132 0.001048391314132301 -0.0009557826440710494 0.0014409564977066348 -0.00026726086861858874 -0.0013513043775911565 0.0005973477913674129 0.0016385217642654543 -0.0005933912736667401 0.003561217317600613 0.0009553043688040065 0.0012829999550772102 0.0005917391017251446 -0.0013885651980830437 -0.002366260888621859 -0.002704304343079338 0.0006343043414349465 0.00025195651181528103 3.756525225269244e-05 0.003921739119307503 -0.0021000434644520283 -0.0012190000030070382 0.0009274782825504308 -0.0002590869350925736 -7.500000419500081e-05 0.0018200870254077017 -0.003199391330227904 -0.0016816956836998504 0.0003193477674832811 0.0017053042660257272 -0.001239999971838425 -0.0007066086881146159 0.0005053043335109302
133 -0.0037355216399705764 -0.001008217440634642 0.0021820434555158263 -0.0013546956925774398 0.003428608655509458 0.0022539999778888632 -0.00019973916673536777 -0.00022660875749905878 -0.00026734780697987173 0.0004145652005124999 0.0004316522358947069 -0.004210912955386448 -0.0007484782722515419 -0.0008582173208908542 0.0009982174302896728 0.00034313042314075256 -0.0019420434002076154 0.0010467825492884479 0.004875043447574843 -0.0031449130999491267 -0.001321826087128695 0.00024878264040402746 -0.001205956498818958 -0.00034499999816509205 0.00601617397699991 0.0027561303805154953 0.00039682617416078955 0.0023528261049448147 0.0015387392511753285 0.0006499565510160249 -0.00018834780222159284 -0.000422739135303899
134 -0.003069521696053688 0.0009421738441628606 -0.0012491739579000632 -0.0003596086551070861 0.00048573911392494387 0.002123913017820324 0.0005724782534778807 0.001065695640136255 0.0006535217599657303 -0.003833956548275993 0.0006520000378773345 -0.0019419565126989492 -0.0007193043635672201 -0.0003938695628438955 0.0013459130473758864 0.0001917825935853888 0.0005923478659141161 0.004186043475309144 0.0019533043200878992 -0.0009609565756324192 0.0003208695106086848 0.001307565329150985 -0.004000260869203054 0.0021362173878435938 0.0006531738934269094 0.001055043362809912 -0.0015908694565397404 0.00037569559556330836 0.00343613047911988 -0.001772869573197449 -0.0006898696073735862 -0.0007438260818953099
135 -0.001888565150970269 -0.0007746956493381573 -0.0022550000633244686 6.769566148843454e-05 -0.0004989130867888098 0.0021478260788843845 -0.0009003913484933867 -0.0005025652394776799 0.0009002609065488366 -3.121741547542827e-05 0.000750217483626962 -0.0021092607982174504 0.0014380869422735566 0.0010736956838113458 0.0023356086837694697 0.0021051304521160605 -0.0028124782256782055 0.0012803043254003253 0.001796826062238087 0.0009948695989568596 0.00018552174214678615 0.0015013913735342414 -0.0032652174021400833 0.0007376956643344348 0.001749000028686841 0.0009516086644472797 0.0007153043786630682 0.00037839133596128744 0.0023666957150334897 -0.00013547827003766662 -0.0002096521607397691 0.0013393043317710576
136 0.002066695671680424 0.00033056520877163047 0.0034093043523962083 -0.0014064348107912456 -0.0028911304265341682 0.00021721734842487976 0.0013035217315242019 -0.001445869553445727 0.003369521724222147 0.002135478294171069 0.0011920870114725244 -0.000823391388226098 -0.003119478231225082 -0.0018336087331313731 -0.002720956446390356 0.000524913046873458 -0.0018292174107678559 -0.0022851304516813757 0.00245091305418021 -0.00039434783241671067 -0.002461608721363439 0.0003350869671482107 0.0007221304163660692 -0.0014794782694915066 -0.00011243473019693856 -0.0015521304740104824 -0.0011356087295849727 -0.0009684348529528664 0.000271652105964123 -0.0009195217457802399 -0.0021243478530896423 -0.0001561304341758723
137 -0.0034051738227350616 -0.0010015652869301646 0.0022258260635325037 -0.0013374782916482377 0.0032706956041258072 0.0020270869376279575 0.00020495648957718083 -0.00027308701796953204 -0.0005738695467500846 0.00029382607190991223 0.0001782174570151888 -0.00398134774126368 -0.00086391307337655 -0.0005331303691491485 0.0017850435055468392 -0.00017039129844583246 -0.002885434700621535 0.0007986521149691923 0.005683130402441906 -0.0027030869994474492 -0.001394782607625846 0.0011258261156794817 -0.001395695626421872 -0.0013255652011139318 0.005794565264216583 0.00238060863668342 -0.0004509999302883997 0.0016482608979972808 0.0015082175023448856 0.0007202609001820826 4.0435014576043775e-06 -0.0005116521775641519
138 -0.004077869461110347 -0.001637130459446622 0.0029223912500563765 -0.002174695662688464 0.0037231738577880287 0.0017524347501381746 0.0008378260463359766 9.973906328567587e-05 0.0013434782713770603 -0.0019976087167616124 -0.0002716086537870781 -0.003417434746670947 0.00014039129904552323 -0.00042569560339514914 0.0019508695796779964 -0.00043447829691855156 -0.002454173853671502 -0.00043139136244502407 0.002728217402878015 -0.0007380000669914095 -0.00391447826784671 0.0016154783130016017 -0.0016969130678183358 -0.0008677391002572182 0.003381043551084788 0.0008534782087815034 -0.0004762608568062601 0.002297086970192259 0.003616565343691036 0.00023339132262069893 -0.0007641739465053315 -0.0006907826502119069
